solver_type L2R_L2LOSS_SVC_DUAL
nr_class 6
label 1 2 3 4 5 6
nr_feature 17856
bias -1
w
-0.003652980455272231 0.007229692965861382 0.0001139861853212822 -0.0001016317402235557 -0.002396903718125618 0.0005680518576507527 
-0.002462469479087287 -0.0007576007690553089 0.0001700494120271708 -0.001345378203984541 -0.002369041647563697 0.006976504960508549 
-0.002384737274678467 -0.002649551932919493 0.003036430183162324 0.0005572286130612806 -0.002800392715993513 0.0005444527812339787 
-0.001553431082629262 0.000378821554851535 0.01418242142620258 -0.01529555648458066 -0.007673281650154387 -0.0004349503667848271 
-0.00701886486049349 -0.0008329653343987365 0.005920047247299471 -0.009359672055353992 -0.004535577582869181 0.005542531824455003 
-0.01215836403627569 0.00964626112447234 0.002550546939322691 -0.001680910685671648 -0.01656585065289183 0.002763642470385755 
-0.007713238545605163 0.00734729518085833 0.0019391133784487 -0.005050540493203275 -0.0005575712143431089 -0.001050386534215038 
-0.0084596192345843 0.005216080599329607 -0.003887755596282575 2.154138319237925e-05 -0.0003318629476666129 0.004371973885435313 
-0.008200739194412792 -0.002004058926830695 0.003435510001230757 -0.003808867203887387 -0.004035476753322299 0.01138906541871355 
0.003551158731258644 -0.0303064475070729 -0.005732178869856967 -0.01844751598925048 0.02067854588176569 0.009459060287403172 
-0.03333296717027507 -0.01612466714406518 -0.003372383659409489 -0.0006729492984974491 0.02148348312947665 0.008891899864484987 
-0.00801933757819283 -0.002005208618296225 0.007157475074402148 -0.003609866604383123 -0.008809539528426953 0.005796975579990732 
-0.00434314151180633 -0.01202549958490075 0.00592396448742911 -0.004332473165290161 0.001787430476735631 0.0007541289632504411 
-0.01055562437550034 -0.0008996096746226194 0.001217407347060109 -0.0008353349530548976 0.001358522528390758 0.00418195595737969 
-0.0127253263962637 0.0125516869449323 0.008431776734869402 -0.01288323745943506 0.0007073534820788648 0.0002250317613071506 
-0.02498761262077541 0.01304583266816857 0.002014847002233841 0.01903378268883175 -0.008234126760191626 -0.004366816847356905 
-0.004289216445673248 0.004390102900619995 0.000645578432450016 -0.00171510565864888 0.0002775904841172636 0.0008315211595124818 
-0.001128238271760332 -0.0003151264714521679 -0.0003303786520468097 0.00548982943600911 0.0005258393021389517 -0.00298942991154184 
-0.00613849115653055 0.004578155480530785 -0.001164036478217471 0.0006008330529960951 0.001167699273104461 -0.0004987411966637009 
-0.004858607048870922 0.00556201940341287 -0.003109619914677193 -0.00135040531925759 0.006246524397116896 -0.003671349545358502 
-0.003910823147135642 0.006642298698921978 -0.0008100672903272477 -0.006122979116462806 -0.004066333879900186 0.002756092568147043 
-0.009919120541176343 -0.008969020704579984 0.004408977981746275 0.0005654003446036782 -0.005858031894299885 0.007026447450428013 
-0.01130980843183638 -0.003819531708048709 0.00605045849051696 -0.003970355500640145 -0.004065026091302913 0.002224064639850238 
-0.01511085348203377 -0.003377146369093185 0.004837340755127949 -0.01204209486267342 -0.006160156880734625 0.008413636193487629 
-0.01083814824102053 -0.001134931939224475 0.002212338475157928 -0.006267761551168027 -0.003456252896523928 0.0001117199138099304 
-0.01755439421228153 0.009580035915719636 0.001669759117203671 0.007438059792505486 -0.0177530405057437 0.007698574706483634 
-0.01188023619373139 0.0008399483575217441 -0.00102405302286604 0.0003911925913543103 0.003280361168316281 0.0008837403003399595 
-0.01060681919501709 0.007649350504197958 -0.004614489981219549 0.002299856404191997 -0.0019882784000356 0.01145428323575457 
0.002697158845206032 -0.002063876381197062 -0.002568029416340771 0.00358046600609212 -0.008634569614018846 0.004209726319067911 
-0.001046132623240365 0.007636971461181349 -0.001026871227438199 -0.0002204037936436706 -0.002312386462606738 -0.004376662828242238 
-0.01139174999351253 -0.002463421070548351 -0.003256650894165269 0.01522287142035327 -0.001147088241865845 0.002947532465757033 
-0.009442144026804095 0.004054337310358366 0.0081464802637852 -0.005180016982638617 -0.005424142976649379 0.00160702898020902 
-0.01289252466679529 -0.0118445079535302 0.01588323205533441 -0.008002500817331254 -0.006498997265223177 0.004384431179999087 
-0.02095736252575454 0.00350693884963521 0.0005481476102943025 -0.006977432450430623 0.006115815256769733 0.003995346543207898 
-0.02852121654104932 0.004298692476036009 0.01100696894517571 -0.01695495795034847 -0.005954538703040822 0.021086051903833 
-0.02393425801336731 0.007326813750045087 -0.01317778766323452 0.0224039146786347 0.001997241037487758 -0.005184445420468585 
8.092193004630788e-05 0.0002341914586432862 -0.004594951062899617 0.003580309337018528 -0.0002101709327364323 0.00314209058708662 
-0.002180046113453322 0.007105345582535895 -0.002502047529604064 -0.0009601623416467668 -0.0006353128287047748 -0.001463517509220317 
0.000554658808958168 2.716597197417699e-05 -0.002296773948610653 0.001806725236547822 -0.0009026078934085201 0.0008113679174733213 
-0.0006842330992716784 -0.002694943359040441 -0.0005617573480935197 0.0003715350107422814 0.0004808584078576709 0.0001773739968440163 
0.0005673362811204879 0.009629130671121582 -0.001547826452279733 -0.001562299734803595 0.002095688714211708 -0.009646781632661659 
-0.01347660331720131 0.00189783332717952 0.01600549280149811 -0.001025992100410213 -0.01919009999251448 -0.0008904883976447084 
-0.01926076059182528 -0.0009800062933349217 0.007257024533406843 -0.002967130359577333 -0.00230261836754908 0.00805103394811287 
-0.01310291935762929 -0.002169687443274611 0.002138912598011182 -0.001911428176390901 -0.005538302729707504 0.005303760253843924 
-0.004241983951470845 -0.007676081186779742 -0.00594457980616241 0.002312589553815945 0.00217030852783564 0.001689048770172541 
-0.009750668640392505 0.02313757362559597 -0.00423361437113462 0.01332119218334957 -0.01291827048124661 -0.01002589520061556 
-0.001885742824418015 -0.009137382112268404 -0.006229627654324801 0.004258008941290345 -0.00514048633361117 0.006828387793655689 
-0.006095964686766034 -0.004260696281147297 -0.006658978663466449 0.000874410064501329 -0.01422107854633167 0.01319094855545912 
-0.005506931809000186 -0.008694129971337314 -0.001765861617206022 0.00185669151575172 -0.00592423940091035 0.01036884671856439 
-0.006194891913887511 -0.007582221787601686 -0.002520186260945878 0.008051580634963713 -0.001969128104699552 0.003024581275660394 
-0.007153155335468538 0.01154707771042732 -0.007472843263153169 0.006286041064668198 0.004903572774843667 -0.004528211988641099 
-0.00931746762434401 0.0007404061540442157 0.004326143322588835 0.003433355914937771 -0.005293764301874871 0.004440795830918216 
-0.01952178152106074 -0.005585913365517286 0.0007056129748161015 0.004158227343162259 -0.001290339678660511 0.0110558815478856 
-0.006766652366332129 -0.005302968594112038 -0.004937604641705486 -0.0003960887807264977 -0.00503244260788055 0.009638045463356226 
-0.02977960723031259 -0.006177601452186396 -0.007831890051163979 0.009105449808593229 0.003270659274742954 0.01422758927643068 
-0.0003923251559965348 0.006522018134800064 0.0002719852173492163 0.001374364131877025 0.003637976070610941 -0.01221468137040541 
0.00135790013124916 0.003859884102723545 -0.005279633853703949 -0.0005191557788674051 -0.002726742817414606 0.003847526562359604 
-0.002576318615340278 0.001362381872646344 -0.006194519786258093 -0.004115230445118937 -0.01519092341982772 0.01071720097519614 
-0.0003425856808639492 0.00242580696367076 -0.00466958589551424 0.0001668227323220832 -0.007152281059377929 0.001232777323620409 
-0.002824971294781545 0.001388601158287232 -0.002013501073169321 0.0004050439849555422 -0.003243437472312877 0.0009039625747889043 
-0.008770541923152941 -0.002450224532824624 0.002755193802858094 0.002911336624008117 0.009542258681333717 -0.00377844838541349 
-0.006301955853857273 -0.007437935143460253 0.001021333135737931 0.000697138409559352 0.005138565893002313 0.005095105835036004 
-0.01000436601389713 -0.006735266351835135 -0.003415037179134443 0.004461565748663162 -0.001975185309410969 0.01342005612106306 
-0.01465273743299027 -0.005918957075042286 -0.002134823391402146 -0.0008286501350934374 0.001960300428369625 0.0158632255986041 
-0.00182929738961374 -0.0104980878175017 0.00147465451576184 -0.003266038444284443 -0.006097467252991856 0.00237705785126122 
0.00856007077404952 0.004559930282280217 0.001310115506364247 0.001884085501309722 -0.007674639029087945 -0.01674530999461661 
-0.002629485679100772 -0.002119225897290656 -0.005742680610203781 -0.00719429691760475 0.0008718685895103959 0.01175582663097371 
-0.009270647788108105 -0.005733428953215259 -0.01308560551063963 -0.006408627517243107 0.01058851723616541 0.01330180963978841 
-0.009869369356419353 0.001158616443981245 -0.005589970307863009 -0.0009381249114120892 0.01115359242432768 -0.005004241787864996 
0.006195684271940234 -0.003263229508563191 -0.003451940741510772 0.0008018459339478444 0.0006282819806135577 -0.003458905145745876 
-0.007563021768224554 0.02120469227963421 -0.006743096895187118 0.002288985940189024 0.001238397402754758 -0.02013301663063541 
-0.001421951328710417 0.005935058086229183 -0.003791440667169829 4.967986760888254e-05 -0.001166290095257036 -0.006398216822604528 
-0.01216563794447146 -0.007733317235183401 -0.004809739659441333 0.002664307623681386 0.007185820142786235 0.008234086481415409 
-0.01746092094961248 0.008753255407434393 -0.003554553182271944 -0.004697151659957387 -0.00565930411303857 0.01495394758538125 
0.004569852631258841 0.01182462964579526 0.008788860288399669 -0.01009825195400273 -0.0176928626482683 -0.008020093437857234 
0.03001077972867392 0.010960342566285 0.00451399778482321 -0.0001978708483342226 -0.0164589941059037 -0.02717881319940088 
0.00898158367800558 -0.006047164315977074 -0.007320382512204972 -0.007917261893327912 0.008121841664236674 0.003925239735229405 
-0.01399747727597824 0.008285114673582424 -0.009766267429622277 -0.005721369364360872 -0.0008443327406056004 0.01360720392648631 
-0.01180555656594444 0.01068546750552607 -0.00346950203451321 -0.004803713907824183 0.005289910253901094 -0.003540034533528579 
-0.008138664614977996 0.00407279944128646 -0.002981609020603583 0.003419117647030979 0.01626174428215805 -0.01208714716628666 
0.002394971151292707 -0.001644096183454339 -0.003269635897558131 -0.001034249006190775 0.007788170300236873 -0.00903113975993964 
-0.01045144678849097 -0.006205426863389184 -0.003678871405539285 0.002000388823039454 0.01409315031558479 -0.0004596740516160108 
-0.01455960151477187 -0.005359852057126314 -0.01118867450526213 0.0004762007262542911 0.009597040332031169 0.01276790840371581 
-0.006215679864407421 -0.01134453173919358 -0.006322939297053837 -0.002308648232351052 0.005985114031609542 0.01543437415436774 
0.003967767895679711 -0.01753352618088507 -0.005487059117122869 0.002319277973271286 0.00681136079617099 0.003636835357245388 
-0.007953910602653538 -0.001854000973646311 -0.0003808219707033571 0.0009636729878871888 0.003059002367619047 -0.006043429190601723 
-0.004214296576782696 -0.007503209401923457 -0.003541077693431006 -0.002909466686976694 0.003068908092755115 0.01490380594048986 
-0.0182716618028106 -2.186760434356682e-05 -0.003606247041636239 -0.003518876858792186 0.00878714159067753 0.01192883093640541 
-0.005560317553827345 -0.002047246465453021 -0.0001318535129466751 0.003754798858388715 0.007623073543120313 -0.00750237194206602 
0.0025586471719254 0.002034182383696211 -0.004485256617941922 0.005185063552949759 0.00587319738059453 -0.00387343132048768 
-0.02557329700662122 0.01340111907921259 -0.005957012237928598 0.004129096021819195 0.02767655881408614 -0.01724546457764012 
-0.01075338703802698 0.002845172775189423 -0.005227788239933313 0.00246020151056428 0.004314940397842736 0.004063390432790285 
-0.0235311259640587 0.001772319483301683 -0.01004896188014205 0.001109404226436704 0.01116315667612515 0.0173677765653661 
-0.008433171310526429 0.003032972264728033 -0.008523333358157385 -0.001973144664732621 0.001774962567536995 0.01368541436440641 
0.04723704236473001 -0.02521004473836176 -0.008351850651014046 -0.01418213546653454 0.008799709836802172 -0.0242390493829546 
0.03229039729252697 0.03092320161786636 0.01732778423093116 -0.004197168228501635 -0.06269034264363205 -0.02277308525869825 
-0.01263482677931369 0.004939486632764726 -0.002552057244855518 0.004273479848320267 -0.001744053713565867 0.003436345247274387 
-0.01605399602581415 -0.002904985336925116 -0.003891202255340913 0.0003590594634519921 0.006289185489556269 0.008069797071636043 
-0.01235118750584387 0.005499973635007496 -0.005354216389917882 0.001879971226765133 0.008888328120616913 -0.002778949039312231 
-0.004741466663227781 0.007287924354695922 -0.005056749848012665 0.004894523945206856 0.005206159919312361 -0.01419132095681767 
-0.009478939387254786 -0.00357324177062633 -0.003863346732745855 0.005346165419632943 0.003322306608386928 0.0003659526829960357 
-0.008691029927251641 -0.009508915196071933 -0.005465777564939136 0.007751491019552559 0.006852912183267913 0.005018862618765123 
0.008348897358299315 -0.005693745567615469 -0.006742361317170395 -0.001578266058766227 -0.004358819537814888 0.004056321706049344 
-0.008997819421815543 -0.009391638400442642 -0.007546243530045578 0.0001641757460062216 0.007970431813578366 0.0130473157145792 
-0.02841344191676768 0.01270869083711522 0.01208103493468289 0.02018911698189959 -0.01014360083894185 -0.01554855845538732 
0.0006560238598234047 -0.001047821277040632 -0.00671085489373171 0.006638852734328831 -0.009405652193600221 -0.006964837608968711 
-0.01287093368900823 -0.004049578254269234 -0.001278430558663572 0.004403985831413479 -0.0008779507526975248 0.01099110708638234 
-0.0168378020782207 -0.005207108834160197 -0.001644280274466748 0.005791209491577972 0.002947221472203492 0.007001060436752965 
-0.01241931443301424 -0.003083629701896443 0.002536990543393151 0.00443121851566074 0.0001535950495391964 0.00256905286600272 
-0.01313844286917592 0.0001415458883548393 0.002318838682291101 -0.0007331004395876642 0.003926726353070384 0.0003819536126964851 
-0.01653681664113573 0.007643054856676106 -0.001666063988229614 0.002676091926140773 0.008759395580196181 -0.008678651552110605 
-5.701533883438587e-05 0.004997759465470176 -0.0004072159106552393 -0.002767364593794991 -0.005173972707900164 0.001260080341239592 
-0.009883603352956433 0.007140465446224397 -0.005549080765501674 -0.003469486612623674 -0.00522189660792659 0.009679436129598856 
0.003647773198071342 -0.007825715018510815 -0.004801785642758135 -0.00107656285832484 -0.004425496612390647 0.00990946925317971 
0.01388994498243834 -0.005268770354993811 -0.001744900237083363 -0.00360277059789398 0.006353119161584057 -0.02214252794034484 
-0.01072654284691217 0.01677386711269771 -0.0006895248224638552 0.002099373109617529 -0.01036447911004586 -0.007598106329920936 
-0.01478893399287642 0.001676030300715198 -0.007700627655336922 -0.0001977052044656845 -0.01104916079837574 0.01647762063219024 
-0.02612381199108232 0.002597166230994652 -0.002738100770669401 0.001958946703003167 -0.003322819942960555 0.01353123529191013 
-0.01476286654569026 0.001289069642577996 -0.00230307258506441 0.006003095418664314 0.001050905198872486 0.006727327686082491 
-0.0007828527163925444 -0.002497023731753957 -0.00428756638691811 0.005352257667691824 0.001591914175292885 -0.003943257500223975 
-0.0003791720385363147 -0.003436489981524357 -0.002918137737263688 0.008655190661776994 -0.0007073842087285859 0.001579400530025362 
-0.0008698058510228521 -0.006585463591606695 -0.002071887288453121 -0.0001780233821542667 -0.003821744946384312 0.006456146126648151 
-0.01671299568368068 -0.001672134496870657 -0.002381912740077578 -0.002746538394560747 -0.002654218631149506 0.02078338974343008 
-0.01037589296581443 -0.007008525168546761 -0.004860925417722197 0.005572021699420362 0.004579163619755341 0.01090305691727667 
-0.006522746496462904 0.02959986818907521 0.002587626374343056 0.01471448794713325 -0.02410977941224727 -0.01758911004205959 
-0.02363334284201775 0.008295856266871652 -0.00132858985143583 0.01066276567070714 0.008085830248991663 -0.01069241448793553 
-0.01375826953289775 -0.008637313178647446 0.01139564713143889 -0.0112978134381331 -0.003255240214026646 0.005348948674330217 
-0.01946573430919457 -0.002187487203571415 0.007847992787846772 -0.01259389288272343 -0.002694245844632547 0.005061547830755572 
-0.01187142310978187 -0.003808759295090724 0.01662514766850119 0.0005900711375229483 -0.02005822251213405 0.004984652203524411 
-0.01543485730004612 0.002164082354626027 -0.0007199039096768361 0.001546180368105073 0.004337795671102127 0.006983513955681759 
-0.01605839596584038 -0.0007088008824567453 -0.004197834671026768 0.01210201434327612 0.007463937727574319 0.002236711189748405 
-0.005125108308646716 0.003378158586018314 -0.004142142152044026 0.0003794613904515284 -0.006818888330853122 6.557686174396524e-06 
-0.002899184447444362 -0.002745298072320015 -0.003776466973112586 -0.006553784427350262 -0.007573365538301319 0.005319637184165902 
-0.003205241385804721 0.004550823824139905 -0.007873118000856659 0.003239532007646811 0.005054440867990073 0.001101304887666812 
-0.009641601057599276 0.002233328615561369 -0.005787340525152733 -0.001712502836579774 0.008968409550283817 0.002020687977339662 
-0.01971768533716091 -0.007373255585634897 -0.005863616884803898 0.003275388104972667 0.003428474791858096 0.0200333038069766 
-0.03318405969828363 -0.005343286479688278 -0.006400557005264205 -0.0003029459008497323 0.009115928498117817 0.0176898591291093 
-0.02088791606498793 0.003238969850099528 0.003504913333555779 -0.001573390785771853 -0.001529682387449107 0.009919834833813087 
-0.006484034764967645 -0.0002250561397188532 0.003411590657319057 0.00079302096272173 0.001713086422721822 -0.0001861945591741906 
-0.005221861448158164 0.001992544397298991 -0.001740818995656361 0.003290357088441383 0.002169180655999143 -0.001218359543221272 
0.01236292941281932 -0.01088550650852169 0.004457830143693919 -0.004559297445394132 0.005196171065681413 -0.0169040350066098 
-0.002715954533770509 -0.004789912217477565 -0.0003196070335670112 -0.002479116357250587 -0.004547957684534644 0.009766482972045038 
-0.009441097293927793 0.007009321726043658 -0.0005504550862548159 -0.006709966295853069 -0.00555101409784653 0.01197073517584874 
-0.005198347674471205 -0.001056124271128853 0.001808632662756912 -0.001847999593757226 -0.003514658556438099 0.008147549627862977 
-0.0372914666612905 0.03521601532495668 0.0004626444284178276 -0.002797773624017714 -0.009514646273836308 -0.007866917839579402 
-0.006260381083081809 0.01532416474388065 0.01206936416855897 -0.005678957642111859 -0.007290254075560945 -0.01146084662944606 
-0.003160570814061679 -0.007122791689810044 0.01354932174819445 -0.01444776932751446 -0.005073887298473754 -0.001118320706748951 
-0.003869847554265517 -0.01001512805515215 0.006642585679628651 0.002322466565679836 -0.002751013269307958 -0.002456805345627306 
-0.008052366071205208 -0.00300545108690545 0.009981696960803286 -0.004594141670484636 -0.004183727927117719 0.008607479825912073 
0.008098940592856081 0.004643167932880062 2.18225884585286e-05 -0.002601557034645339 -0.001161651221700417 -0.01034003946216977 
-0.01991178581099737 0.001889083454267743 -0.003907081795481528 0.00443594929599696 0.01332715115904697 -0.005041654799228092 
-0.005655528366604485 0.003845708950135925 -0.001595862677463342 -0.0007456427452913757 0.0004638189040386711 0.002463236836280279 
-0.004887623176015583 0.002531676301413183 -0.001883112357311578 0.002933023042773823 -0.002637027845320878 0.001155222245858267 
-0.0034706471173128 0.001539409692108822 -0.002539309021191587 -0.0004732511076083832 0.003324597580667521 0.001158258538938572 
0.003742194178912092 -0.006781601407198011 0.003216239992675119 -0.003922070579997216 -0.004248408552339572 0.001583102645643557 
-0.03005474871002392 -0.001815494108107165 -0.01370911307469234 3.510779073067026e-05 0.008129763724050599 0.02107224743806479 
-0.02519713610647883 -0.002417407830458717 0.006459390024288658 -0.006404268529332496 -0.003472112841369844 0.01383471207849469 
-0.006106070424601538 -0.01611392989446532 0.01231207751512293 0.0002564326274523093 -0.004604975734478876 -0.00109330403480631 
-0.008254105032361445 -0.006664769723533692 0.01012920155085516 0.0008852131674928301 -0.008989733226157513 0.0009059772590486409 
-0.004205046184858922 -0.006292185991408216 0.006484416184072968 0.001504758187523294 -0.003969659698258207 0.002315979138130943 
-0.0007557433735548498 0.007334803036710329 -0.0007403273217075203 -0.0006750060004004788 -0.001234461787394405 -0.005791683968971477 
-0.001498690211913828 -0.0007766994187584569 0.00176570495755126 0.0002297401858998872 -0.001539277530023314 -0.0001891090728226936 
-0.005051025398641879 0.004210520909905299 0.005601904303612892 -0.00190249445886022 -0.002274419140456147 -0.0009906859436984554 
-0.003635024901986529 0.001576871108914897 0.01053056852389828 -0.007269133541705001 -0.003029803557754549 -0.001802325392630068 
0.003752406985127871 0.005980195423655902 0.00186306016379342 -0.006179005176474359 -0.003535878117797058 -0.00541190571783478 
-0.004587240587907164 -0.002276279471712981 0.001481239457071724 0.01053938917255333 -0.005130966686507512 -0.003670137786268676 
-0.00782651151814439 -0.0004882487849578025 0.000432150001584746 0.0009923500710740053 -0.0009000668200247009 0.005603578499721313 
-0.01489063992781522 0.009513928511268191 -0.003083209014450814 -0.002490064449984233 -0.001198858907512081 0.0135534454655012 
-0.01339871233909834 0.007749632823126268 -0.002243119821657287 -0.003020705015836878 0.0006861027542512511 0.007632663473050996 
-0.00350747175584334 -0.03780924554509515 0.001685912272347012 -0.01795608784679011 -0.0142377272445762 0.03482508131126501 
-0.02720677512496397 -0.005462613709321785 -7.472647821458119e-05 0.0001314838098924034 -0.00268812319421502 0.01525354221531502 
-0.01876431625677263 -0.01302323222334347 0.005220504488612491 -0.00128146529074833 0.0001089557557667412 0.01250158708305903 
-0.006663611948165557 -0.004493009259661393 0.008109758106166317 -0.003963574896095584 -0.0006209666761453015 -0.004729019226469813 
-0.007108163541728935 -0.00786517398890191 0.01706980235166973 -0.0122674394538156 0.0003534894550507054 -0.002161920824696915 
-0.01052709034431089 0.006603320850346728 0.001346612796522145 -0.004726610622425216 0.008243285536611024 -0.0007256516441066667 
-0.01911166456534519 0.01259063765964774 -0.0008791982465452278 0.00294583968234915 0.004634294513503265 0.0004367885008888662 
-0.01270962160262978 0.01505026640674161 2.815463199715848e-05 0.0009395091685570442 -0.0002056475699174059 -0.001568639201212737 
-0.00275465444144792 0.007783674896600039 -0.003524663689511457 0.003361901997847994 0.0009926897313100643 -0.00247506989874034 
-0.006086551467210534 0.01439235043260288 -0.002833506333512621 -0.001844902323665104 0.004777086097017894 -0.005173541509919974 
-0.01458526800826484 0.01864781590255716 -0.007459496574073196 -0.002746549334787018 0.005603747375716119 -0.01403013157697668 
0.02526502394121601 -0.002633286269768068 -0.003786744914841251 -0.009061474506154769 -0.01265153277261233 -0.01106090267055694 
-0.008251546290305872 0.01085820092410101 0.0209415554926439 -0.01113568923673851 -0.03496995021850877 -0.0008416803587979422 
-0.02665268566800119 -0.002824814062747783 0.02334857737382579 -0.01988476371804289 -0.02632258867424691 0.02875368117844715 
-0.02144699798329332 -0.01179254090565546 0.02185052200008037 -0.01614166547128953 -0.01491004671941079 0.01477035548311523 
0.0288416437005863 -0.006631989316540863 0.002218863204492992 -0.007343635087823111 -0.01502606719113076 -0.005706968160369219 
-0.01451942027309599 -0.009704812614199875 0.001224599786148758 0.007487570507612429 -0.01471466038971914 0.02185268718400178 
-0.0006873508230327447 -0.004757764323825766 -0.002509037945624413 0.002926266742949094 -0.00485838096404045 0.004124612380909446 
-0.008265366534762201 -0.006475895772239125 -0.004857003580314607 0.0002582729988244109 -0.007161401892227 0.0110048964618296 
-0.0121164636415966 -0.006264729635959475 -0.003196219382032365 0.001286320670159347 -0.004631242583103723 0.01021290722517904 
0.004120549286248221 -0.0007494983723178374 -0.005416726342100968 -0.00125884937927809 -0.001575610999293852 -0.003473495955388467 
-0.01171672313760709 0.01056275580037442 -0.0103636421619372 -0.002012663783692839 0.011188354778906 -0.00645282943543315 
-0.03464407246613346 0.01276774179648239 0.0139581543410188 -0.007083074491881457 0.001089239362345412 -0.006952927280825026 
-0.02520134115578084 -0.007752054298876505 0.01949710297034351 -0.01406675681329002 -0.01126849890808911 0.007810105513913056 
-0.02396061623201605 -0.01941301164255813 0.01979301668635255 -0.01068990014941444 -0.001175700596091502 0.01555724930119708 
-0.03737219587552863 0.001206414726710238 0.01495670486907184 -0.008456697834912966 -0.007892544426026216 0.02191661699372129 
0.006695286503459054 -0.008090726753904265 -0.002887612436820766 0.0143752309717163 -0.01033698376576324 0.015623095296135 
-0.009021510239773845 0.00241514711968726 -0.001336907108345222 0.01072182850220878 0.00325778426487285 -0.005452749265524181 
-0.02839307495043451 0.01993647735869904 -0.007317630054428865 -0.004114005430163476 0.008050265683297825 -0.004462395018433036 
-0.00330873076949274 0.009817458378519696 -0.00440265309451 0.001527603613069597 -0.0005534892427403572 -0.01379167338707029 
-0.002935325112363947 0.00936308440839191 -0.006717802421409741 -0.0002150377229706596 0.0004422622653325486 -0.02228504893539561 
0.03461752385382814 0.007689278368176019 -0.006430609542233743 -0.007940229379579233 -0.003883875463531443 -0.02367926956417436 
-0.01539377062029844 -0.009236253668733766 0.01858107108848966 -0.0057803290322366 -0.01387680357716936 0.001519534905180852 
-0.03629277250874669 -0.005406089037461744 0.01559825046688866 -0.01329060277210752 -0.02939993447779029 0.03559518251170861 
-0.00615138898317711 -0.02195965680264703 0.001281338676551061 -0.003027753070823322 -0.01766281746008087 0.0196824035083804 
-0.01239331585313455 -0.0009909059159984282 -0.008071193149028238 0.004989249157149827 -0.005563123927318041 0.01398994688514828 
-0.02021394066976369 -0.00148911445404488 -0.007126799753306239 0.009132042541875341 -0.001347610129448809 0.003675730396244955 
0.002797275667651948 0.0008638804768956129 -0.009419095310773624 -0.003922947351309581 -0.009991452742083181 -0.0007577546201833398 
0.00227141749978682 0.004150237009404443 -0.01429162692318216 -0.01648297082176277 -0.004897798426642853 -0.009904475314319094 
0.0003571229094849885 -0.003073111964655687 -0.01262793457839146 0.001018979516119171 -0.01098283184491564 -0.003928315097518909 
-0.001935985364422269 0.01008439686740755 -0.007618171962311926 -0.003043253012701214 -0.004616252210491316 -0.001804157840436635 
-0.02169568368786907 0.002299539225689972 -0.007143045298601356 0.01191323824494324 0.005249172786318741 0.004501680473666897 
-0.007061618516097688 -0.01288895449903554 0.01523591766401796 0.0007686072388560758 -0.01409087431330964 0.0007943570708739315 
-0.01618545770444607 -0.01182335675855524 0.02718370600056613 -0.005552229305497934 -0.02840418060003351 0.002856006971587876 
-0.00315439481681895 -0.01865686974809442 0.01078150640339082 -0.001049336214410149 -0.0168408565794789 0.01446110408132471 
-0.008170551410903538 -0.01333346954029429 0.01430122635260511 -0.008587107646100685 -0.02801864412249394 0.02379570157861454 
0.02034499611290835 -0.01803871258295617 -0.01415606215814274 0.01642667966821995 -0.003968169363896484 0.01056763035805997 
0.03327607727076136 -0.009332446625290104 -0.008705891069332363 0.001662032926623513 -0.008907645914690747 -0.007940976881958533 
-0.01480630781670246 0.01953719515610171 -0.00946094640415565 -0.01330139570144876 0.01731396644102072 -0.01070483000377466 
0.00304283497790876 0.00987609508463849 -0.0163832829787178 -0.006644296626828758 0.02894947256758116 -0.02398650192203361 
0.01840084428480483 0.002400330094706585 -0.01097348071327094 -0.009718143525566375 0.01650708487806713 -0.02357609615777276 
0.02131921077350468 -0.001611799744598418 -0.01030568062971151 -0.0005652378459080147 -0.0023672124330837 -0.004501575406813771 
-0.01031681409288869 -0.01347818725794112 0.01451950990009426 -0.004234368160632096 -0.006271868495788748 0.007500330124934698 
-0.01259950656813132 -0.01395087512059036 0.01119773158288012 -0.007917005957436484 0.01242249575568289 -0.00254203961173055 
-0.004380333749963144 -0.006987452824317595 -0.00890291902635441 0.002427392747754751 0.007936837991370609 -0.002148224879062283 
-0.005197334800161298 -0.01760820847463468 -0.01018626787109421 0.008566310080313043 0.01320499070887434 0.002469170597914675 
-0.01951091711733095 0.01758518915545008 -0.01705127019961809 0.001463685577473859 0.0329194945604063 -0.02046593678838489 
-0.007421830260771627 0.00991422644913599 -0.01052573463961669 -0.009201273024570727 0.007622118664456175 -0.01439593353964724 
-0.0001900023105739768 0.01719780815864922 -0.01377609555441265 -0.01727484241960382 -0.003277167647632514 -0.004411924696307732 
0.007063012767600646 -0.006680667538264586 -0.01163815136367125 -0.003300625975541804 0.02325896197104684 -0.002341752111603014 
-0.004754203874755102 -0.01781821132801876 -0.01124470319915031 0.0007308446228613195 0.01599758394540735 0.01112361520392659 
-0.01437036703765321 0.03022294938595243 -0.01345637348782249 -0.0004826925200766501 -0.007582347351826699 -0.003743012463427882 
-0.008367365760349323 0.001173488407590575 0.01362848755538784 0.0014379154646528 -0.0109559451232351 0.004071805604790533 
0.0007909239353856808 -0.0115402259948845 -0.01282533559848374 0.008328214462538491 -0.008310928129966814 0.01688311221464505 
-0.0008531799650102941 -0.02061623559509059 -0.00598801435673258 0.0156428527853299 -0.008829801929336981 0.02188615693106697 
0.0009099874564529143 -0.01880184076737541 -0.009581268311222796 0.0168633495932716 -0.005607804723477191 0.005451226692075589 
0.03338760225732819 -0.02496820053909971 -0.009972612554493721 0.002744828764946378 -0.01441818361135008 0.01246113583462063 
0.03164302760651558 -0.01357328777915504 -0.007345526054031578 -0.008337516703400157 -0.003677838765804346 -0.009647057363713995 
-0.01848419681067449 -0.007561916747120574 -0.01635640220090769 -0.01296888632628047 0.01304649250946499 0.02725531980329557 
-0.01087051938317362 0.01224225890426001 -0.01800165724492953 -0.009278023424551599 0.01132980320422746 0.00282297294801437 
0.01628194559566444 -0.004582255350056762 -0.01638310195798423 -0.003438298769530402 -0.008396148111829571 -0.0007130779130287103 
-0.006222165270966913 -0.012052662008301 -0.0133669552815281 0.003374535258080022 0.002631017739778782 0.009254254731758295 
-0.004341275342198483 -0.007921496886308201 -0.002595180480225191 -0.00187844304884048 0.01876581821078619 -0.003702441323299063 
-0.01812911873680436 0.01560029088101822 -0.0073083993813342 -0.00654617968994073 0.01195070192758964 0.0002818267398166997 
-0.002780691647254715 0.01589923485224391 -0.007057530459886246 -0.01229097992924541 0.02084161007874696 -0.01506845742560705 
-0.006890030802931723 0.003740869110139565 -0.01235963377392172 -0.00785458873855536 0.03363071314187391 -0.01861683823947372 
-0.01152467523617869 -0.003932886243513112 -0.001056928030845667 -0.006037950213560564 0.01189538639466771 -0.01974337595439554 
0.0008994640649048464 0.000841830433291572 -0.008511909452849263 -0.0007768228646329308 0.007778176936562961 -0.00751554072223895 
-0.008267224936744649 -0.01920875476831649 -0.003123364320627488 0.002791176333303088 -0.00815510836032339 0.02302003795332393 
-0.01741964442732742 0.006613739141193994 -0.0007990113997476642 -0.003063153070477265 0.01411156180913185 0.005462848490114133 
0.007280282386809103 0.008468052054257512 -0.00357071805192742 -0.007051914892530852 0.003965016863740648 -0.00461040981068673 
0.02008585733420005 0.01109806311359747 -0.008171879662400938 -0.008088044812014103 -0.01350211164465721 -0.01699653776892627 
0.001154154116739236 0.006867564427445013 -0.002153582247143373 -0.007898328307445855 0.002747986830843023 0.003616336521691075 
0.004046873441855928 -0.0003841264655468405 -0.01614028125776827 -0.004954187181585301 -0.008624380629609161 0.0234098089544951 
0.01964610416434467 -0.0149698976228326 -0.007526113691247421 -0.007407275326191429 -0.004104566684111813 0.006891833046631775 
0.01094478426324651 -0.02047523282918539 -0.01689216170586324 -0.001592971022490351 0.01577919590619671 0.007416324285599328 
0.01581261528241009 -0.0251436568807905 -0.01875992740343776 0.02475936589698136 -0.01011973458229389 0.01585777197394435 
-0.009928302115682493 -0.01836757403578456 -0.01321549171530473 0.01595605535262996 -0.0003841029271069804 0.0201446407880644 
-0.01210257260532153 -0.01971710369964337 -0.01370700916972909 0.009204115032037901 0.008463408691190317 0.02384612358497401 
0.01187873617480442 -0.008726188320981492 -0.002374240059822632 0.003118746368991464 -0.004576681283900251 0.006127659495690743 
-3.940364311640005e-05 0.01578214676245778 -0.01145847327447201 -0.002548289579188786 -0.004150981779349616 -0.004108459755760497 
-0.01164633547153894 0.01018236857485307 -0.0100671686300255 -0.002164873413411485 0.01834251226506405 -0.0181184279300127 
-0.00885992269979973 0.01592986460005498 -0.01419616449811054 -0.003765874964983094 0.007700040804227839 -0.01367796143638656 
-0.0282340615737558 0.03230939401798379 -0.01916870491900377 -0.01229483903980222 -0.003547575893675706 0.007514651423331653 
0.004019167884374467 0.0009201422676071326 -0.009147344009363748 -0.006832131401911096 -0.005715674145623294 0.006374020816915651 
-0.008912904385170128 -0.01397703304549384 -0.01131127277871904 0.001015434027133728 0.02354964504094551 0.005269025488710007 
0.008693642101512826 -0.008472198173652681 -0.01665304578389891 0.01238006660645032 0.007020324872273343 -0.01527001106404561 
0.01622600657234418 -0.02150218432034387 0.008191736740436295 -0.004558106735879142 -0.004772927480783489 -0.01911823081040514 
-0.000661381429039675 -0.02056270711637872 0.01263214492364764 -0.01110257182566535 -0.03044097626319107 0.01442188790338198 
-0.01769484904571883 -0.006830137930898583 0.01378023725773093 -0.001167240811222319 -0.02079815986741911 0.008575468666307328 
0.01517332626104068 -0.003904764100797382 -0.0006481176236292178 0.001872456100696676 -0.003286862106570345 -0.008754444504254113 
0.01372028613326047 0.01674819529542471 -0.01420519760315896 -0.0130748315016145 0.01586648572449556 -0.01476827366181745 
-0.007705760145914749 0.009339804589183749 -0.01254351403314961 -0.003098001844122525 0.01989317161853732 -0.001741129819520354 
-0.02796319471060743 0.0010955888852063 -0.01845808662536944 0.002228854694850433 0.03116563812176056 0.01062215857674879 
0.02057898236101378 -0.004573825457058851 -0.01037264459731709 0.00153619042693308 0.008409466066483223 -0.01349363155131641 
0.004339252727970011 -0.01063261327424863 -0.01029761214287648 0.007762024354147424 -0.009000400248810698 0.01171313909859385 
-0.002148418685323303 -0.01709219236330365 -0.01276543759307631 0.01828928360208227 -0.01469908167457605 0.01834128546302662 
-0.01179038368349315 -0.005970258900800018 -0.003271874713221953 0.0002755020236990432 -0.008993379048631371 0.01835600599149004 
-0.01870027353639111 -0.01984524580785621 0.006026993719249126 0.006345116244855229 -0.008277446631180506 0.01489232306618234 
-0.00537061358854381 -0.002293677970245865 0.01725181304901443 -0.0005765419717915095 -0.01926506209328911 0.004756146441168728 
2.131350013946048e-05 -0.005147014729413751 -0.007860077074331824 0.004052323314184395 0.001505263730576766 -0.002235712500169495 
-0.007002098338121499 0.003088835975216842 -0.009544630368472078 0.0007887526064517502 -0.007311689600621621 0.003940686703309112 
0.002352213318802481 -0.008030630566395823 -0.005089357565624361 0.002806975374351493 -0.004170409273650304 0.008947229637370817 
-0.0004985507568771167 -0.006696013788023377 -0.007857519179045451 -0.006734336919906461 -0.005173801924049063 0.01842055512723353 
0.003868945391698013 0.002691557789646899 -0.006046136539451616 0.0008197876056079738 -0.005477475497979002 0.001974858695845928 
-0.004325149943676276 -0.007567091688065345 -0.007135823011493131 0.006031157581943747 -0.005877053547106699 0.006367663364544756 
0.01648448317645443 -0.005748180953177525 -0.007585253512209049 0.0001558135540849278 0.003279983273332274 -0.02222308303893434 
-0.006832991397670631 -0.007399183226963729 0.01229678541202073 -0.01720961043029761 -0.01204639090124494 0.004360645242768107 
-0.04947819747392602 -0.007619208459343971 0.02453030019163199 -0.02080141919365755 -0.01834323494220558 0.03176187712704892 
-0.0336789018931196 0.008780895798590772 0.01596765489214623 -0.01043079986247723 -0.01846830959081737 0.01543094283977189 
0.0233753095340773 0.009235695710474043 -0.001234035094820378 -0.006194120943152935 -0.004578480278832514 -0.02032661318875096 
-0.002899443428383835 0.007616298633915911 -0.008656136976485443 -0.007368679559336142 0.0191247119992657 -0.03167522164937325 
-0.0146441894830167 0.01977101635450375 -0.01033760635593932 -0.004479075073639064 -0.004481331447955937 -0.01411524313737162 
-0.04320677020015899 0.01377370920474594 -0.01450894870042179 -0.003990113648399417 0.04172131145928021 -0.01276108896053569 
-0.01144486608958578 -0.004657888383106674 -0.01065908551676763 0.01509102670675058 0.01352953325452693 0.008779495991970072 
-0.001051167408828715 -0.006022569225419275 -0.006372736665065871 0.009847564607279889 -0.004286468762092545 0.01651814531117799 
-0.01420397959337808 -0.01112883464319283 -0.006472891514143523 0.01247897905749116 -0.008574806912942464 0.01071433065091215 
-0.01555466350586993 -0.01599715980292109 0.02313461272553961 -0.01256333847866835 -0.01653533488378341 0.009927706165156853 
-0.02411455027478141 -0.02101913473310026 0.03262378460935991 -0.0129057067045132 -0.01771994587404354 0.01239756450898113 
-0.03072119595044712 0.001916825880677893 0.01168868588177649 -0.0005013737777363222 -0.002604828004713132 0.006285041648156639 
-0.02273931462706865 0.009539065503149775 -0.00509990433842065 -0.001698396394764779 0.0001417694024444693 0.008216116060997867 
-0.01799268292522972 -0.01005995489913798 0.003447444003718218 -0.001519166562006193 0.008896884216383488 0.009202497267877873 
-0.01514187124238788 0.006702099190298828 -0.002657730097556418 -0.004688961332955082 -0.005189802180402248 0.01615901792483623 
-0.01059289663502054 0.01523363866847124 0.001456249687495199 -0.01291528364406389 -0.005495671931504981 0.008600134936750738 
-0.009862454960720562 -0.003015227627954724 -0.003205162214693344 0.001565142879185995 -0.0005585450905901427 0.00964775561090515 
-0.008986571580954146 -0.008231572905097264 -0.0001566522857639447 -0.008307670632723252 -0.007463151441051369 0.02083046975053945 
-0.01612429819131527 -0.001857665711907901 0.007852254193279184 0.002772789162753564 -0.008918328885951057 0.001502326762119736 
-0.01301191307953268 -0.002068616663989323 0.0114528113413684 -0.01020379064589214 -0.000790402662486426 0.003625651168650025 
-0.02621295311329261 0.001196609421772438 0.01234512442668386 -0.01312402681961952 -0.01048103744504982 0.01845646329088572 
-0.006510822121654473 0.0007273776734209381 0.01449188981339405 -0.0054990937222792 -0.01451064041719934 0.005374615466789164 
0.02388852246052213 -0.004671987688440342 -5.040339934207072e-05 -0.006110687488223949 -0.01072026817950559 -0.009970111815666439 
0.01475191111749048 -0.003695391884502618 0.0009945516643779584 0.004962213257317318 0.01285845413276887 -0.03829329090479711 
-0.02565551636219 0.02975475407362739 -0.01661126080616591 -0.0002646174655264616 0.01722790203237095 -0.009701234229757945 
-0.02532142151926139 0.01295321215517941 -0.006310026309465394 -0.007003511743872783 0.025067621700032 -0.001333898428909971 
-0.006584033584044032 0.004116307358675625 0.003493049452836825 -0.001742303056827292 0.002583769414839831 -0.002487253927538199 
-0.01211845367323258 -0.0005716920995539536 0.00705834700369659 -0.003228358887522221 -0.002829552601379549 0.006900583419531655 
-0.01146517109613729 -0.002476106256326601 0.004786920424644723 0.002367734841679519 -0.006438321558693823 0.01127118539485118 
-0.01303167073698204 -0.01806209336513015 0.0223056954840623 -0.0197049210426428 -0.002589261056728436 0.007529480912436013 
-0.007992334281957468 -0.01322323213783576 0.01922699730612169 -0.0141555451722927 -0.005611476781402802 0.003163181584437828 
-0.01819155701395873 -0.007862476141726287 0.01853548279243204 -0.006817487232554743 -0.01927672519401053 0.01034291199330896 
-0.01979250099270172 -0.001418208989313626 0.005224374396469086 -0.002103691028833504 -0.001906807302774439 0.01285371261955299 
-0.008185923510355726 0.01730316176341587 -0.004960349641883414 -0.001639979956517208 0.003064328822573417 -0.008719923104160957 
-0.006801565413986059 0.01347297525293204 -0.003421196519955395 0.003729178955966036 -0.005433183498057965 -0.004453895792734847 
-0.006848784855783246 0.003132579193386346 -0.004099591786010631 0.00720353981766965 0.00156759293504764 -0.0005502998068888889 
-0.004387649476338068 0.00318125912684728 0.001363838832097266 0.001528204524561808 0.005264306218373318 -0.006080960869663566 
-0.005792138958257012 0.00692489441743429 0.006100378089315995 -0.004790345532224081 0.006852949716840508 -0.01457404319863159 
-0.01978714000666183 0.007967517959911576 -0.003479151243029726 0.01077624851948856 0.001229970657803053 0.00214969386053328 
-0.004514495289911888 0.002196392442605968 -0.0142337026801746 0.01567875682789142 -0.000685440350979262 -0.0008936188015543661 
-0.008478440573733127 0.01412014319369061 -0.008547669078875487 0.001917499755246656 0.0005093790276780736 -0.004934537997527964 
-0.01048346849702112 0.00709107868905941 -0.002190154336147875 0.0004240555318359845 0.008417620900865074 -0.002122717912358684 
-0.007896958251201685 -0.001169683743275681 -0.003191026548553472 -0.01366741881344448 -0.005611858024524325 0.01879891832397851 
-0.0007291681346882394 -0.01783079675855422 0.00437037593278315 -0.01089313944386395 -0.01449551808621983 0.01882670278581994 
-0.0185793323710291 -0.00341707756876382 -0.00176221733483567 -0.002938662282697571 0.00844035287949808 0.008321515973038568 
-0.01624118540697763 0.0182592363180827 -0.001535915235963939 -0.00404211132617824 0.001956754024373579 -0.0001237967238677001 
-0.01142662015217458 -0.004128765229912038 0.00333159991554563 0.00187973920409429 0.0005950739127520903 0.005711949138536485 
-0.0100808994648355 0.0009303817836309049 0.006066693038487647 -0.004846540224010027 -0.002670638814035226 0.007446191022743212 
-0.01057099103219962 0.01955386053156337 0.0028140510836111 0.002675686964807584 -0.00683999917721567 -0.001139771549685324 
0.0004473076269800246 -0.006023944749871434 -0.004766580866635898 0.01176481379673894 0.0006229733814430723 -0.0007583055621568312 
-0.01014955688058474 0.006703974529913646 -0.01391377826539395 0.01122937310492862 0.0003448423627612257 -0.00262290706939287 
0.0001163629841582081 0.0134743907472185 -0.005297171090899533 -0.001540912925692229 0.003652860518912226 -0.01012439381095011 
-0.007661683130568704 0.02685580403119011 -0.006051451520918599 -0.002327991212691749 -0.003620337510892468 -0.01766071641173019 
0.03234958814572 -0.002257734325384517 -0.007432750501922878 -0.005716103092935714 -0.01073243959120625 -0.01428863826950373 
0.0005568453997915636 0.01465683744620173 0.004770598225079956 0.0005618463243236513 -0.02179192002487229 -0.01146534111880112 
-0.007674045061656747 0.02631526657198787 0.002864214126951695 -0.009906352443385124 -0.01727119231178654 -0.004295896810745321 
-0.01254865982715152 -0.00126224030971105 0.007863105523878682 -0.002703464337654453 -0.0007607396029665151 0.003545415386711196 
-0.01277908419120801 0.002651203211003038 0.002071939247846115 -0.001932772740200379 0.009019451820220851 -0.01051905329537484 
-0.03457228029867949 -0.004627819611013562 -0.006871162181528037 0.0242911077133135 0.0009867271865937493 0.01871900852204319 
-0.003252380440337052 -0.007238150171648207 -0.01261163256166176 0.01833908322229779 -0.001893677405297282 0.002026038114156073 
0.001252549873114957 -0.0004258748819700021 -0.008180841904847528 -0.001302620862786919 -0.01057653546573171 0.002939073180871275 
0.003523284772172005 0.01785295827553497 -0.006659764812381756 -0.009384403672490715 -0.006915416308133819 -0.005782312342966736 
0.02285875052326848 0.02853357477074648 -0.01071037138423057 -0.00440677286042879 -0.004760934975975276 -0.03687968814932773 
0.02269240706102557 0.007742681157747473 -0.01229951177062598 -0.004192028857406385 0.005452961849614199 -0.03626435297520877 
-0.02014565285486149 0.01640256921191579 -0.006853742309641846 -0.001980753485043672 4.194840226432311e-05 -0.01792176338029893 
-0.02786482261159561 0.01265549336989905 -0.006616275366611556 0.003914540109567242 -0.007561562922796047 0.007661952501767324 
-0.0223730528468595 -0.02655826384033359 0.01453294594152165 -0.01232382125574005 -0.002024063216805014 0.01888747655408737 
-0.02475539312182542 -0.02410491370703252 0.0001287750144301538 0.003967525912499647 -0.002990952934860419 0.03691917760493288 
-0.003468135371032578 -0.008307574089075887 0.00299582311570436 0.01203173680055945 -0.002338716277581452 0.005433225171818538 
0.0244992028474428 -0.01812940124103606 0.006374491022070963 0.005346874137150947 -0.01134758374951617 -0.003243774404216264 
0.006637056505996756 -0.001052987409161313 0.0008225888482824267 -0.009453628115370698 -0.006793128995660305 -0.002677612731982467 
0.01271490882624439 0.01544809193543968 -0.0128074545270489 -0.003793338570452639 -0.01913846939997427 -0.002090556584919861 
0.01453565705557811 0.02047395580481813 -0.01007086149150913 -0.003458537750888894 -0.01348104757630542 -0.02816914391060947 
-0.002790562627786653 0.02778437548406714 -0.01120619413370114 -0.01501458203268289 0.001513230343518116 -0.01899728968260569 
-0.01335237768573905 0.001460899475183766 0.01055493438458204 -0.005258645119336177 -0.006141046078365463 0.00722264942642283 
-0.007603090958194125 -0.01091727819946514 0.01785321487750643 -0.009050847064302928 -0.003201518769173468 -0.006325732042175492 
0.002082089532912418 -0.01696751211925096 0.005579679405250709 -0.01108355989175702 -0.001394991796250064 -0.005799461701074555 
0.02695253244923333 -0.005375659647005627 -0.007537258896234494 -0.003707873091009651 -0.01188743843142493 -0.02042226420021089 
0.01899102599066545 -0.001889659835899956 -0.01100079120710344 0.01561003003426828 -0.01368441013112134 -0.011468340063853 
0.002630801158851613 0.001464547943446348 -0.01001719530175843 -0.003009285142221056 -0.01020601831751977 0.01019050880213991 
-0.02652103900569199 0.01103155923911793 -0.01745357454050249 0.001012297982893652 -0.005759576170395238 0.02837271392576911 
-0.01572075109263949 -0.003411228243301426 -0.02016817552187638 -0.002094967186685314 0.01249711752743455 0.01246131016342825 
-0.008923980561698174 0.006263284440525092 -0.02084147903713891 -0.01203544277115848 0.03323861513806185 -0.01204248868560613 
0.007378161919565421 0.01225088020220854 -0.01729330966497815 0.003767985995346133 0.0215728177013367 -0.02913073949398403 
-0.0006953697736281719 0.001272508143720931 0.02069677916827335 -0.00757459686221059 -0.01625298127141538 -0.01778716743177561 
0.008709610699896776 -0.01950906196927814 0.02323025880062454 -0.008400228263408215 -0.01816471669979702 -0.01339608471591531 
0.007142458578907266 -0.03168731093830407 0.02056728424711624 -0.008974066300238084 -0.0179732008643457 0.0004699801591905406 
0.008557533865983362 -0.02062944563037048 0.006115536927923684 0.001547889042123154 -0.00167457981048018 -0.01057926165129808 
0.02660208081601998 -0.01618871416490449 -0.01366625455039484 0.00866981350544341 0.006626157379996378 -0.01510128755541216 
0.02051193161251825 -0.01038415137179101 -0.009075688951383942 0.004761080248808197 -0.01642830360542299 0.005556091094410146 
-0.01635869137992226 0.0009570669925044841 -0.01523124537463646 -0.0001631724279068395 -0.01698988867636769 0.03205672521072006 
-0.03192597740528693 0.008198969602209824 -0.01827596485812969 -0.0003313356040103994 0.009459974525704065 0.01527812518640541 
-0.01990004137589392 0.02796927621711241 -0.01865421474806534 -0.01099400858650639 0.02412249132501464 -0.007673480791959974 
0.013645402473815 -0.002635952057942191 -0.01607283187850597 -0.006908688896839208 -0.007305123350158013 0.01557084836207779 
-0.01457387905285543 -0.02812225044308109 0.01808551270421735 -0.01041384042484608 -0.02161866124817112 0.02323373445426827 
-0.006492815805496032 -0.03345594461606377 0.01109255077502891 -0.003173506719154865 -0.02431193665725356 0.02345219019310468 
0.01503440165943069 -0.04340601293925258 -2.933863543367432e-05 0.003924615993807296 -0.01543876121280376 -0.005870970112544952 
0.03339642718837334 -0.0112845807587458 -0.01231544711620995 -0.003390923649109203 -0.005304340762124377 -0.01130123071924522 
0.03098677092140894 0.01239808322033146 -0.02085200442304496 0.00826062603180814 -0.003287017796800895 -0.0403323661750131 
0.00390689415272425 0.003189921233691057 -0.01252965071758234 0.01515998276054879 0.0114628518344366 -0.01693110493827362 
-0.02244606964695956 0.0105820106002198 -0.01419097113280496 0.01027849613047018 0.01639374542887891 -0.01323903126691499 
-0.003466522818957818 -0.001057096586394996 -0.01110927286791417 -0.005762101895409678 0.03444841023731304 -0.01801977740946307 
-0.01317455582556492 -0.0111839649765388 -0.0116784081483664 -0.00208508804684553 0.04955506579676466 -0.02243344801344002 
-0.006218574800785627 0.006065807040788607 -0.01356926403291354 -0.001744879277475049 0.0387264420240693 -0.02266910770568166 
-0.01492460962502512 -0.003124325837699391 0.007248514488239538 -0.003625706883592402 0.008914438274838746 -0.00591133474070127 
-0.005603232474014849 -0.02762753331677994 0.03233621008290044 -0.01976265213931943 -0.02228014348966835 0.007324296807758452 
0.001961572539985321 -0.02616725389626699 0.01680526295211287 -0.008264250341511245 -0.01776437578687904 0.01834354261045741 
0.0006393432031272035 -0.008630472224867531 0.002249332174645737 -0.01136297872893658 -0.003879944333420413 0.01579399020728368 
0.01302286350793871 -0.0003620764971797748 -0.0168604179647101 0.01420338616913678 -0.02830390726208576 0.002387958607268276 
-0.001237316566972514 -0.01185555020547401 -0.0174089206121842 0.01359271362776431 0.0007982609334038131 0.0107431902488118 
-0.02587643205497585 0.009262017577696808 -0.01867326521139128 0.01800123829731633 -0.002690587803282161 0.01410486234524276 
-0.02260419935553304 0.01157563668388513 -0.01064683962457648 -0.004776662360189786 0.005328328258636951 0.01031130097399644 
0.00425025875851018 -0.004552569555715668 -0.01969831124602087 -0.0136468472389309 -0.007648265154394586 0.02713549599034126 
-0.004531148904462364 -0.002409930304637155 -0.01591886582914964 -0.005055026525711605 0.02075237203440153 -0.005480916177011359 
-0.03492521787185039 -0.006034699444370709 0.003253195269047688 -0.005521892801569087 0.01856607298280448 0.01340102749514407 
-0.007908843087675217 -0.008475774038103156 -0.01422598554397498 0.01349664229772002 0.006093367438832996 -0.001139403297728312 
0.01848194077960049 -0.008413785600869098 -9.800386715231076e-05 0.003206064873647868 -0.0008299432623462166 -0.02862306856998111 
0.04563330570881113 0.003728917625120155 -0.01126397043426493 0.008418611356646689 -0.007325379467994715 -0.04282902986843925 
0.04945455616362577 -0.003101826842749459 -0.01298150398441773 4.455104215232803e-05 6.606739239068931e-05 -0.04818867226975079 
0.004896303985051971 -0.01018240507072961 0.004981123690597808 -0.00796388532846818 -0.0008601681219210706 -0.004995067639683378 
-0.0179692206018878 -0.03042507965284526 -0.01075795057924359 0.002746147853625069 0.004901553651887 0.01630738144736482 
-0.02177446652914405 -0.02154579642489849 0.008500849328691046 -0.007190543342466505 -0.001248085813047968 0.01797115127414017 
0.03633058522651662 -0.01359852245248185 -0.00494679377920318 -0.005802759863688584 -0.01911435775671693 -0.002369113147586407 
0.0301615565077559 0.008162965666138781 -0.03004092928519156 -0.01009988746880521 -0.01211589049153646 -0.004042346873223056 
-0.01588639573652902 0.004414842032146172 0.01274793958453526 -0.000461730850189689 -0.02070776923557598 0.00317552351469526 
-0.01598362425176478 -0.01657936347952289 -0.03170509518315358 0.0320838258802766 0.0008040403527318935 0.02317339978725659 
-0.01825200912331404 -0.008340718414230269 -0.002710546767788473 -0.002632636985636142 -0.0006419983602066741 0.01604880247026737 
0.02281399045368558 -0.01505438758231696 0.0004507045231012516 -0.004354660915034292 -0.01668259917463602 0.001243226418004008 
0.008396268377414853 0.01365276773316363 -0.02696762121276053 0.0006560524445325451 -0.005979145227908799 0.003999440063609245 
-0.01877950822103153 -0.009715645166844759 0.004394806566270524 -0.01097129624243635 -0.01161463382940371 0.02882764009740464 
-0.02477444491969684 -0.01929418097075326 0.006270439388788726 0.01076270527745964 -0.01784663563829743 0.02778638077562667 
-0.0004514603520524187 -0.004068278206440547 0.01030683325810795 0.0001017429982482264 0.003706350295415489 -0.0007717342828214388 
0.01605076896263593 0.00271509992787126 -0.01551592755590649 -0.003890053621659301 0.0256997436912376 -0.01728641578029869 
-0.02401879109648116 0.01429709423742881 -0.01528029762014278 -0.004576879409458768 0.02747580199472461 -0.01164329793781328 
0.00129723293404806 0.007705329601187414 -0.01157737459253512 0.0004740294309818012 0.01854345906475236 -0.02697599183456748 
-0.0232088314260603 0.03283553960384119 -0.01805953252155853 0.0006950310294214703 0.01730552994634062 -0.01764147475389169 
-0.01033705692313693 0.002422514763294943 -0.01413342735597745 0.01133952426309727 0.02348948836847221 -0.009415593838644983 
0.01591026260188061 -0.007603210427582853 -0.01477095082282543 0.01923905818225788 -0.0007861521586289981 -0.008835179454045085 
0.0387209117231218 -0.02211495882201025 -0.01073522688881349 0.01320950166972835 -0.02016683963963037 -0.02179679049849529 
0.01785914666625229 -0.01566397784809692 0.01426742252855703 -0.02614377167378562 -0.00837810642071639 -0.005904484651920865 
-0.03228524892462699 -0.01412668452430494 0.03761605334517086 -0.02522874963964967 -0.009429041829349243 0.01086133962392517 
-0.01116440984416336 -0.01155530855852384 0.01419334020991017 -0.01279544142591176 -0.003761428722967292 0.01137213980473053 
-0.01258793174380722 0.00440377406123171 -0.007496606538685187 -0.007160005383605931 -0.01177691011469569 0.02091953773379312 
-0.008975508111910368 0.007170733020176816 -0.01269817801797466 -0.005702698190411491 0.01092000353962605 0.008901439790011127 
-0.008253121416057307 0.01554657823075797 -0.01209461427968484 -0.0009077904694645604 -0.01611232626895085 0.00464662743227685 
-0.01330161764399623 0.01954602598092852 -0.02037046994716007 0.002008719380444826 -0.01314593232666265 0.01455669174478392 
0.0348141671298245 -0.006251603524009066 -0.01159531797670078 -0.00452597582268909 -0.00891542489945441 0.004474891818904181 
0.01237525465919481 -0.008879430796153026 -0.01350498516436935 -0.001800307094254395 0.01692040984872808 -0.007087418857752843 
0.009048895031554064 -0.02417299190299398 -0.009288524210303618 0.01464855432900227 0.006098517152011879 -0.001318443551236929 
0.01846587536509979 -0.03696548111781547 0.02568929510676206 -0.02103430107622404 -0.01988646777662454 0.005061070921372495 
-0.001426257411352217 -0.0312106734694987 0.03452274359736498 -0.01848225234623887 -0.01852250529231875 -0.008024428090673883 
0.003496666909522915 0.005083680521244533 0.009282399637465839 -0.002622448825913018 0.0007516380387494999 -0.01167817070356916 
-0.01695287807346565 0.001046951786477963 -0.01387067554355648 -0.005856294216755881 0.02449236056864483 -0.006030289592447524 
-0.008970419456671049 0.01705401437417088 -0.01827012270311767 -0.004424976031133542 0.01840456803268183 -0.01736374321593077 
-0.003059163330222555 0.01167546054853401 -0.01444785997390085 -0.008877162763948468 0.000965857086401623 -0.003970926256212514 
-0.02882431111561599 0.00750714689082516 -0.0134752691779902 -0.003897860421909828 0.001281383466946196 0.0280689985995826 
-0.002455958129936857 -0.004422457439131995 -0.00839470578628645 -0.0009006561211336196 0.002900674084532578 0.008637233254455905 
-0.01378192139376871 0.002266870557778513 -0.004824990271842393 0.00691975204703364 -0.008580897635301749 0.005383696058996547 
0.003412280566398209 -0.001365899593492598 -0.00491288089787331 0.01320191006625851 -0.006114609365255714 -0.0184240093871813 
0.003729759695584744 -0.008604543693250661 0.002095000558634757 -0.0001452386095611923 -0.001786167320550349 -0.01175255276049299 
-0.01192519299647165 -0.006463727263792337 0.00666925767190511 0.004376257459967871 -0.00992783051238541 -9.513525922465822e-05 
0.01524179572168999 0.01480106712295108 0.003529862572953907 0.001496197492541344 -0.01586020107632917 -0.0071989849336484 
0.009439553840844507 0.0222845770386139 -0.008891834467957771 -0.005566091919145362 -0.00764609916283338 -0.02383478345244133 
0.01393579235757576 0.02521385944340049 -0.006433484517926457 -0.009052675239840421 -0.01249636685303506 -0.01919616715792455 
-0.02565668001895053 0.002089887960276452 0.0004732138496189479 -0.009864815006468386 0.00954071902328572 -0.0009836220931024825 
-0.03169125441966023 -0.006918467998646192 -0.001359498084326268 -0.0006297392718069885 0.006629090565208905 0.02998141445003506 
0.003442125011424385 -0.007545351757813861 -0.003430099098264835 0.009368003409643956 0.00305886274383873 -0.003678345801838874 
-0.0001927847775312604 -0.001731287004459853 -0.005322770492941422 0.001137482668310622 0.001644371097850542 0.001578361372447215 
-0.00266779657095775 -0.02838796731786833 -0.002583685499924533 0.005595726295510325 0.0005484805917105594 0.01453656076123007 
-0.008861811110154732 -0.02686825137102479 0.006874695585854297 -0.0103400729361979 -0.0004798583509655713 0.009829930590914903 
-0.004964594982457267 -0.004128791399070869 0.00805308168913595 -0.006050961767223155 -0.01282131614155641 -0.01265845668231075 
-0.01185851785821804 0.005859655855155841 0.01406935607559498 -0.007554182807078377 -0.02067373845376128 -0.01292063839357795 
-0.004338372749482409 0.01813276631043702 -0.007414719697376799 -0.004711663489344257 0.006429035231566848 -0.01893140732358181 
-0.01689354479794649 0.01140342752389181 0.001398155620502134 -0.01076064640060055 -0.005488111184206492 -0.00970288793479388 
0.004923855624690318 -0.01091107840399422 -0.004557266776770232 -0.003216468576693723 -0.001978244452760617 0.01813746565954438 
-0.01450213636185097 0.01122813428030352 -0.01126016741907341 0.0006446637453579578 -0.009356027672052914 0.02863508296191507 
-0.01003330245397753 -0.001681844169652284 -0.002448664225124076 0.001725739754499341 0.003250104943072366 0.002953955564693608 
-0.01632545769357603 0.003714287086127117 -0.006831542751121915 0.01168028447809023 0.001106398064483575 0.005808235105291118 
-0.01130387671809512 0.008789350397559315 0.008522087672855906 0.004838361780466803 0.01039528383416333 -0.02208907089952076 
-0.009404409290031323 0.00617196294789455 0.007762525795706646 -0.007038107414897724 0.003374332962442194 -0.00471363847585553 
-0.001286208338028045 0.01577054114974094 -0.001920476808466335 0.004577025539832951 0.004175374157868673 -0.01859435489437131 
0.001806394428543561 0.01377849340855508 0.01301424653871542 0.004588074839135862 -0.006200681856075071 -0.01683702139322178 
-0.002504928749451624 0.00599170681729471 -0.008692838004563186 0.002661159736257553 0.0003970230825742363 -0.008293941291295031 
-0.01845230872175279 0.02417265442189067 0.005969572202039223 -0.00850978781488094 -0.00513437881388372 -0.0225526228597221 
-0.005324139331555826 0.0241036581292075 -0.01346455166597366 -0.007617250670607771 -0.003524200502861397 -0.004194530126501055 
0.008452624602649381 0.01202546211935503 -0.005063050862582163 -0.007431093948999044 -0.007460168839715642 -0.0105039227787564 
0.005302825697783045 -0.007295938658600716 0.0007870652556239943 0.009649135150883243 -0.002853457741420836 -0.002798907969682313 
-0.01200967102908285 0.008047134496574957 0.0006373357669852865 0.001787819427324772 -0.009107573557427383 0.005315535597962497 
-0.01273022132276885 -0.0109135782074697 0.003763998351615864 0.001824363117793413 0.0005638231479038055 0.009618213620635382 
-0.008484281971417479 -0.013036156387003 0.00199441306455886 -0.0004356107258202778 0.0009404122152026032 0.009234730692409421 
-0.01885780421898335 0.01516682875671113 -0.001975995094677488 -0.005803109140189123 -0.002566345923533058 -0.001990611775877832 
-0.009830596559958682 0.003379279929672394 0.01076784602950231 -0.007734423466821379 -0.01013522536689648 -0.00286017581731309 
-0.01288393123695688 0.01988624815147238 0.002488812034784754 0.001175446681955768 -0.005748038758212336 -0.01088354478125521 
0.004002074297496338 0.01157404605873396 -0.003124943272684636 -0.00650899592158964 -0.01481765254046461 -0.007540894159487429 
0.004283300952272979 0.01179557945670534 -0.002430017815164713 -0.002653390645492597 -0.006378594675962754 -0.007886588477266631 
-0.005052575879787987 0.01651844893622495 -0.0006076772309440339 -0.002973289422362975 -0.004098666521295805 -0.00671798850971878 
-0.001908813193249918 0.001676472469588364 -0.00795147150944683 0.01413266594923369 -0.001340825629076801 -0.004889222958345658 
-0.009061135923446135 0.007280377551247981 0.0001219537372985455 0.001420456453920614 -0.0006918930067923515 -0.002450958111108634 
-0.01947744572866466 0.007237864408423481 -0.009949691516654856 0.01244972866964593 0.004684164678710061 0.0008539015056542457 
-0.01307952450263324 0.007698882941510992 -0.003651975934247762 0.007068485386436521 -0.001554662969573955 -0.001892748710975513 
-0.008595194388165231 0.009640255006020577 -0.008894129039805979 0.009400340968147144 -0.003859983948486325 -0.001931978907651004 
0.0002449663395417222 0.0001809240863215045 -0.001934819243176717 0.004351656250723166 -0.006366724464268623 -0.003884839226498063 
0.007707086602292037 -0.01385532542169735 -0.007328546740861636 -0.01393335119971798 -0.01366993603494271 0.02623844059952253 
-0.01243743289596785 0.009315087398659579 -0.004126215895676621 -0.01684945395533557 -0.001205216285838941 0.009128028290691209 
-0.01809263121062046 0.007850915050368322 -0.004392103072700607 -0.004189262087698 0.00277733805822669 0.006202422083737921 
-0.0144224373813273 0.006933651695886527 -0.005168315509706123 0.001662944907638304 0.00759144015102751 -0.0004018848911881006 
-0.009303590113813502 0.001704029447459807 -0.0123363825003441 0.01375288092460527 0.003825044869851434 -0.003792075367533464 
-0.008724109571538472 0.002228568332346333 -0.002669439764986416 0.005998367617526062 0.007149442081693799 -0.01006716568115298 
-0.02035340435315644 0.01870143368509005 0.003142328017709799 -0.001458407753277409 0.00368895502328931 -0.007249304720461108 
-0.009254879496654196 0.01072113176076865 0.0003561920564100537 -0.0002858309990451533 -0.0006031916398983935 -0.002735887828524145 
-3.865898712572201e-06 0.00927172235426899 -0.002772848721519645 0.001881573194786326 -0.0004487758077928986 -0.003793667314346939 
0.002490517083655041 0.01101175520628311 -0.002840553350207993 -0.001930392019995755 -0.0005119736129726676 -0.008397469304781673 
-0.01660427854235396 0.03988524380369052 -0.009575536539677245 -0.005913043760114734 -0.01336710083544261 -0.009777344898843521 
0.02278482603357218 -0.01105425285704513 -0.007601040040093376 -0.009270139071965231 -0.02229672441840718 0.01043351945316597 
0.02438485389591463 0.003320552801711589 -0.009765065934317446 -0.002349356034057453 -0.01934143137028025 -0.007298410927069828 
0.005865661343158804 0.01601798551074611 -0.01077859101612058 0.01442366628270863 -0.00699565057946002 -0.02159126031610041 
-0.004901228761462132 -0.007674692610233691 -0.005076959635569973 0.01644862543105237 0.0002673356855277758 -0.01474200477087064 
-0.01952502785977505 -0.004578624256349578 0.00222430045018081 0.009648887231141802 0.006226925144702168 -0.005707829685800274 
-0.03057028944387909 -0.009198182959285135 -0.006165225760906501 0.03121868041960004 0.007150193439226962 -0.004338553983006881 
-0.01211349302508827 0.002790026140284832 -0.006006084889768062 -0.001779382779066028 -0.005213322000985068 -0.0001549692049644183 
0.01721856756709883 0.004779571071300366 -0.01108077380390682 -0.01129428750508579 -0.02394441683132414 0.003683940725689444 
0.01631407563845299 0.006810843771298829 -0.006791023683190872 -0.01587770319631726 -0.01773222876954294 0.003315771111387679 
0.02248380758123481 0.001291521551924414 -0.007583957058329995 -0.02421358305240792 -0.009876583828663348 -0.007843955993176161 
0.009033413900691605 0.0214714813632982 -0.0148838211989197 -0.0123508965199155 -0.004628325043708021 -0.01687266668409911 
-0.01629798348715624 0.01907074722107525 -0.004724884382696096 -0.006440734771660918 -0.008420062341329668 0.009831167465115021 
-0.02753032610033419 0.03794309054782648 -0.01535271316500632 5.734046505437774e-05 -0.008499437164261324 0.004379234120040793 
-0.01508731534632349 -0.00620102950786035 -0.01263400706561051 0.02319511339885416 -0.002549324117789143 0.004998668522392686 
-0.02097822210010648 0.002856848233675212 0.001863137299031908 0.009807464719324291 -0.002167050312430355 -0.0005184861383975451 
-0.001786663172400515 -0.01013110811281472 0.008617993888452351 0.01071477705858399 -0.002905060826138605 -0.007638085963680376 
0.002439826589870966 0.004222961169563475 0.006083275302730092 -0.004634856779831319 -0.01223905866500432 0.001444488163434467 
0.02625059064161501 0.003684883575188334 -0.005874413264327282 0.0002755860062791535 -0.01893156115804154 -0.0009654242727770645 
0.01714201302819325 -0.008009237325009839 -0.006243459591344021 -0.005649688964298396 -0.02861780973684055 0.014541223722901 
-0.005944460431549603 0.004071655297175008 -0.01364837002575291 -0.00672190814048553 -0.02355862677339035 0.01316514362542214 
-0.03011374003467818 0.0150571203341595 -0.02007445241027445 -0.0102006904637066 0.01329612827780447 0.02000026721425206 
0.001873449083913877 0.02186239108835339 -0.0001500225253336748 -0.008090286816382687 -0.02468793932139631 0.002399657197499839 
-0.01429237002395545 0.01489794124002861 -0.0009843333874432704 0.003197914139528211 -0.006926866208561142 0.005913783539876014 
-0.01217838836210958 -0.01016216578332851 -0.005026021557011699 0.008765064291434532 -0.002855332682486196 0.007318721915880131 
-0.01995714400522776 -0.000733119371907194 -0.01154880399824452 0.01239199789293464 0.01023183765254679 -0.01321145033089557 
-0.006964206643644115 -0.0006999244874152787 -0.01800207046253275 0.01468737810212965 0.008654013655614343 -0.02126665565957004 
0.006660613744995613 -0.002470635992847399 -0.01024654515312344 0.004947020866148641 -0.008622078503339192 -0.01333007217094996 
-0.0004802743086179481 -0.001668621742346863 -0.01411710910538186 0.00817007092553652 -0.004370531700160722 -0.0002029053715675075 
0.00986162039243276 0.01146984068168402 -0.00974151970232875 -0.001783772601814049 0.001430643595625513 -0.01968592594184098 
0.009588730796778133 -0.01117487437472431 -0.006023197634355873 -0.0008519266998311833 -0.005297101273675831 0.009182247383701835 
0.01571515815528808 -0.01483091128562152 -0.01420485348087678 0.001859490844713336 -0.004586853031185199 -0.001549854117335843 
-0.01272623263385016 -0.0009663904765207252 0.001083413922739269 -0.0097075197825856 -0.01201963983290131 0.004012679014306034 
0.009723898121073632 0.007273311094758362 -0.006317562533682497 -0.01387582018081187 -0.01415843332694663 -0.002238219811513992 
0.02389430119580657 -0.003060566571226507 0.001857491711423229 -0.01764078930924111 -0.004491551329448649 -0.01108913067682986 
-0.01328947188147517 0.01110102394030606 -0.002618143301090779 -0.01609634800102182 -0.004568728821634013 0.01061016108086667 
-0.03047072389569762 0.01696548432288808 0.002052555951052388 -0.007844197072384778 -0.007793435404258925 0.002617098778097066 
-0.01653481473462535 0.002967107335747853 -0.00319480165789094 -0.00518650718278833 -0.004530417848257489 0.01238384716173173 
-0.01395328671309297 0.01185086390220935 -0.01696577014260903 0.01489227989614235 0.002609031866632713 0.0002411460240215376 
0.0176613925374382 0.004712851851310179 -0.01394314477289362 -0.002556662075221083 0.0002918660357530936 -0.01046789397824218 
0.004572348813621278 0.01393344680223546 -0.02025943226874339 -0.0114397837527345 0.002930003270566377 0.002396988596779177 
0.004653668625075056 0.002574612376670418 -0.01958611907145311 -0.008816311366494998 0.01163653815019623 0.008105198224210672 
-0.0167111996670731 -0.01159701241843354 0.007548687620239493 0.0008186674143570888 -0.01967793470438668 0.02487598645675951 
-0.03668511082780424 -0.01165894372418176 0.02548314276860748 -0.01640648968224084 -0.01151363574653163 0.02416267879902665 
-0.008105246483358855 -0.02210153011070201 0.009695474843716186 -0.01064644614639244 -0.004205763245730758 0.02149923564711863 
-0.001755699714475501 -0.003364841994297842 -0.00375568933865639 -0.0004151787032941424 -0.01816777527600525 -0.0007622410878289441 
0.001591297056101661 0.0140617946712469 -0.02353274300103823 0.02200156704204458 -0.02134029189877073 -0.01628888621069696 
-0.02709771026219145 -0.001533655541493529 -0.009532990966280078 0.01890807938688511 -0.01204398784939676 -0.01149062019252549 
-0.02140623143404851 0.0006620528852248101 -0.02246047434776247 0.03829665347235304 -0.01127486844621578 -0.007904578275304181 
0.003428930801887228 0.007498768590132164 0.002327817413986252 0.0006920266921990083 -0.00244082495489773 -0.02189766778401408 
0.02901034820859892 -0.006189342886269154 -0.01040598394813272 4.821560250921793e-05 -0.01360053544797079 -0.01176105399265068 
0.05216235133102562 -0.00970983622975252 -0.01730655848543235 0.0001273499591736673 0.007388775711048726 -0.03303415415018317 
-0.01590603072496669 -0.01581716536309362 0.01942329749250615 -0.01418230336038072 0.0001855172455304263 -0.003053907028141433 
-0.03727377327195432 -0.01544975542238904 0.02799239559419645 -0.02378537747306302 0.01405469580687764 0.004296095558217263 
-0.01945867296879571 -0.01098498733500134 0.0243612239938817 -0.03303812936785478 -7.512253617354548e-05 -0.002440783741058122 
-0.002813406279316695 -0.005342505707308642 -0.01137255849610894 0.004119517240344474 0.01174630608101285 -0.01734788675618102 
-0.004026267042795555 0.003600106074915955 -0.01834665238894876 -0.002131829971460224 0.004492397749627206 0.003744693191296211 
-0.01366907876235443 0.0212030381993947 0.0002517058794360014 -0.01289138401883586 -0.01837974947085434 -0.004924417250429466 
-0.03347871680317333 0.04717434068070559 -0.0002213533721769472 0.001888104099179601 -0.02297150008319243 -0.01275554229174626 
-0.003183654706540464 0.01388252153601878 -0.001843399781284345 -0.0002186905836665138 -0.0190795889531573 0.002191667296750619 
0.02009061077020006 0.002116722077786211 -0.02831707134200237 -0.003530447482160921 0.008308372811050577 0.0003833013716636324 
0.02499232430251223 -0.01456211848595865 -0.01232370251297754 0.002741772938183625 -0.001967368547980581 -0.008865638135750101 
-0.01972261424089163 -0.008905712374752064 0.006199168239887262 -0.007317522050686202 -0.0112464634405081 0.005565185315554802 
-0.01433758475920246 0.00831106337116402 0.0005650904540722368 0.001930609955447177 -0.01231671118065512 -0.00694237775368865 
-0.01667520206988297 -0.009160625746902329 -0.005595717493507452 0.02227097980764681 -0.01199146293175473 -0.009186993743836193 
0.006148375601168658 -0.01105409571939725 -0.02303409645127758 0.02616971187260247 -0.01296204205453301 -0.005943737903114754 
0.01902097992787359 -0.007554402647328737 -0.0197785169260004 0.009287025354593522 -0.01601610752581544 0.00524195858707636 
-0.02003583222768131 -0.004588586700789275 0.00230485259126689 -0.005385911834449964 -0.005281461892023821 0.01734514485959296 
-0.02748364639198262 -0.007071886149289499 0.02724219515459354 -0.02340251041991398 -0.02770894605238539 0.02161071487981666 
-0.01298449047663074 -0.02008383774140663 0.02703894804822082 -0.007600750597665358 -0.02951582899129707 0.01163603387724379 
0.03808117753130665 -0.01310730437205404 -0.01506308793397413 -0.006170975020058147 -0.02033142481942897 0.01125403305521648 
0.01986668440863018 0.006169575992113585 -0.02342759952757487 -0.0001753494291634774 -0.0128544197208733 -0.001417824545647886 
-0.03825464525156266 0.0229510961584653 -0.005781642469333408 0.00315352075004608 0.009608684817362996 0.005218561409398896 
-0.0305866189127082 0.03123016331640442 0.005475599748510691 -0.0105150035964316 -0.007208675461671474 -0.01750377136828087 
-0.00832121636938034 0.02174040731093425 0.005860423471965385 -0.01129854659320999 -0.01504386261559866 -0.01465444271796173 
-0.00824887764061593 0.008892661387280638 -0.001924667728334278 -0.002636671811775003 -0.01326461508084642 -0.005483479923423534 
0.01407377004154862 -0.001369914218393906 -0.0178737702842918 0.00341219610707449 0.008051118204647871 -0.01552966854652605 
-0.02332922074066127 -0.003673767156135939 0.02457035065137065 -0.03021397940827005 -0.008644066691972999 0.0005818527584469474 
-0.03296928862322137 0.006818029399373552 0.02564254981374181 -0.0258179003644599 0.001161185955972385 -0.01513678647415555 
-0.008896102083167563 -0.003682255796955945 -0.001107573364287141 0.00240750901647571 0.01582341051870927 -0.01270178767361118 
0.02890932039387309 0.005858105934346353 -0.01642806129160987 -0.002809063697650122 0.01354650880915991 -0.04197901842950539 
0.02566452459504353 -0.0120782011215555 -0.01521815358054184 -0.004121545191612619 -0.0006553367322985828 -0.01223590527227999 
0.0095771755506498 -0.002813099243338069 0.006289760691052046 -0.007324900770358102 -0.01009896554011268 -0.01457036118519911 
-0.003008200934566314 -0.005835836032846221 -0.01326012926722168 0.02217684267212313 -0.007784363726048825 0.0004302644007098841 
-0.01128319210627991 -0.004034484858707586 -0.01090158399168466 0.01922524346738918 -0.007838709932649575 -0.001718125027574949 
-0.005745106377295021 -0.002510798347275379 -0.01537771336852342 0.01217715214507126 -0.01436546250361817 -0.00500227912321035 
-0.02154482381626576 -0.005403595466892296 -0.0148709977471734 0.01310469022367467 -0.009360125452133918 0.008408931986651566 
-0.01306063784508707 -0.009507387990781574 -0.0001511555375640356 -0.004275836790170129 -0.005599085958343279 0.01286732816788648 
-0.02498940940449496 0.001993985190363696 0.008276112620187678 -0.01013982482175525 -0.00800977351615866 0.01191705680669166 
-0.02763685923756181 0.01049548780292999 0.0002488096365374367 -0.004014146588822093 -0.008757463471325562 0.0166262286297008 
0.007437605410570179 0.02114049562986202 -0.0166233548928561 -0.01514562861922856 -0.003412036821280686 0.003363788977098241 
0.02378858921031074 0.006180745923496093 -0.01864829560058685 -0.0117422383016211 0.01331876690873155 -0.01785042612615338 
-0.00541801599343093 0.02003893735568109 0.006484557522490187 -0.01047727622474185 -0.01093350604454886 -0.01427995871477462 
-0.0005401561354601251 0.01941316576326694 -0.02447549444267704 0.01524071893669875 -0.01154133087314514 -0.0001681336532644039 
-0.01622349323520638 0.006381388263455023 0.002096674143893855 -0.007439803481142093 0.003058786802043392 0.005989671362345863 
0.006373092490885881 -0.0008645993561206695 0.01324857664126854 -0.01584529486136761 -0.005852183254001695 -0.007676683133407372 
-0.005984617791910023 0.01144503393635757 -0.006840415504084806 -0.008206432251567653 0.01694110697904824 -0.02051207718829138 
-0.009794121853424657 -0.00503167416098993 0.002601682778882011 -0.01190508346095061 0.008862427243756864 -0.006129249661114327 
-0.01510722125445014 0.00545442008859478 0.009784616078626695 -0.03239585926272309 0.006455206537038968 -0.001266374196665506 
-0.01217217697113882 -0.02051654502049521 0.01685299148432681 -0.0158694996610767 -0.004731617356288238 0.00307367763796399 
0.02272306723874983 -0.006736393338572069 -0.009338290370118962 -0.006490327140060097 0.0009769412022831699 -0.01402474070714744 
0.02238462683998381 0.008987784870242011 -0.00852591432832382 -0.01064448805277246 -0.008489286977212527 -0.0157098380580284 
0.02068106755745393 0.009783163166530637 -0.006221712374084439 -0.01106892515548222 -0.01569526664829691 -0.01743806645767934 
-0.004238445893244483 0.0171572149390946 -0.01010347748772162 -0.0130316876006782 -0.0161541012170914 0.00754961048726314 
-0.002020119519180162 0.007951359626928204 -0.005940988652239099 -0.007285869131524149 -0.005534480265579014 -0.003219318830891821 
-0.02765968695020048 -0.001396823062637422 -0.004134311545350529 0.01657961777535148 0.006349192449172346 -0.005477951486351669 
-0.01040673384282496 -0.02608721582900908 -0.0007543061790943877 0.02803015346021388 0.0003135541106362557 9.32802030461213e-05 
0.002608061167966727 -0.01366013749950398 0.005982673133930986 -0.001714046707631121 0.001200335409609525 -0.002128251240845069 
-0.00726624961884867 0.01654912900060532 -0.02088006022987634 0.01471473306152461 0.002142292207208827 -0.009772003164913771 
0.0001774676308860091 0.01333666556050412 0.006970130170074076 -0.003556376068931456 -0.01288115449410626 0.0008877656328449446 
-0.02828662413362015 0.01112426556818917 -0.01374994911632889 -0.007292449724476083 -0.007094131379794341 0.02011548659621899 
0.00103892013404769 -0.007642169050864536 -0.01170020352639849 -0.00417894529447205 0.001151754020086586 0.001578282497824713 
0.01116653494934952 -0.00238794693002224 -0.006891506645303682 -0.005316020553718003 -0.02114758813223213 0.01786534299834576 
0.02578004323222026 0.005383415176743239 0.005282159097332158 -0.01080047198942941 -0.02232994647132503 -0.006085315423580314 
-0.005589414304735457 0.008518315875571692 0.01203512513416503 -0.01538773829282919 -0.008649404476439025 0.002747817135010678 
-0.004277630118298195 0.004770446502062975 -0.000357643609736164 -0.006536125078270649 -0.008143162410906015 0.004440214060428338 
0.0009187146217273061 -0.01937755151679068 -0.003527714696174994 0.007190425796364225 0.003185938149654098 0.0004553525343396281 
-0.002904124074831314 -0.02229702027039352 -0.01707160070182715 0.02615276921132204 -0.01181534784269358 0.01608263189303953 
-0.01527220424349745 0.02488547489391726 -0.01631325523303999 0.00214659918376574 -0.008871218164182739 0.004512682151044546 
-0.01573302099585317 0.0259333671797618 9.386454876138503e-05 -0.01177193627877649 -0.01955597358840453 0.006709898159366511 
0.008261020776518729 0.01447860665532503 -0.01113901727418246 -0.008290454507470502 -0.001285057942631272 -0.01716829561952544 
0.01456583652458887 0.002930951747916492 -0.01183656831318909 -0.009384049074589802 -0.03683397697321906 0.0151540972353984 
0.005406265683399242 0.001866346069337778 -0.007380030586683495 -0.004472031942763562 -0.008528943599226296 0.003834892308337551 
0.009054230349666495 0.003279366410477619 -0.01319145662383278 -0.003070006208099687 -0.01306758502171361 0.01214761406456768 
-0.01577423808029427 0.007303502388969985 -0.004986101085808613 -0.002113644073148331 0.002016764906747961 -0.003010899436565518 
-0.01604235198354445 0.0009371901427283026 0.007045780917391132 -0.0007220530693660566 0.003733228341727826 -0.006057918183477515 
-0.02218460244724011 -0.002284602187193881 0.007817650705733325 0.006159693510551929 0.006923050940532952 -0.007234037022847336 
0.003360387218254852 -0.001830471205339842 -5.02215175523679e-05 0.01031321636474094 -0.004128038273635109 -0.01275302049232121 
0.001498510452400553 0.02253566603027625 -0.006861148043392909 0.007619801972370081 -0.01467735054395533 -0.01170487085226929 
0.01937845692645652 0.01399252755854436 -0.001322664819348822 -0.004391263955525364 -0.01210210795328309 -0.01759258977295316 
0.003466771719706377 0.003734218011897143 0.00613680683955123 -0.01061242507433351 -0.006931079058670236 0.001236466447742832 
-0.0382973224371309 0.05310737857376407 0.004210967587938796 -0.008740459471314268 -0.02859994646656132 -0.006631089879263934 
-0.02190415657859076 0.01203793363358775 -0.008252542411357576 -0.005152228747340256 -0.009956851468945047 0.02200406147448906 
0.005470630628428528 0.001245673837720595 -0.01184351191115234 0.009896118330269054 0.000874958643066271 -0.001287727763018825 
0.005313457343124051 0.005259889650180333 0.002981096132826386 -0.001847897620825239 -0.01067658629399746 -0.002140773424350807 
-0.001483244638084444 -0.004648768633652877 0.01027400990355636 -0.004705611006991683 -0.004730829350917077 0.001631678391717714 
-0.01540761405058693 -0.00760132353429699 -0.002295553610197099 0.01477430247505567 0.003635878537159304 0.002414821899311474 
0.0002242551415193837 -0.01756128640425225 -0.007402445673654243 0.01754071100679491 -0.005786438120225889 0.007432242818722596 
0.01039966182215185 -0.007227401268838445 -0.002933542119462304 0.006437414479243853 -0.003964804989640482 0.0008655307950506064 
-0.007991017469635535 0.003953974898909816 -0.001179584482606712 -0.001149565021996133 -0.01384571977122867 0.01020261570323147 
-0.03456415431549997 0.02780353771262107 -0.00145363058430572 -0.01449025366311202 -0.01249112695428694 0.008515162802724928 
-0.01393148239509663 0.03886137173063459 -0.007302306597366157 -0.01045408095310712 -0.01367150159093794 -0.01723726470030754 
-0.001112331603303064 0.01054192354043836 -0.001096982326578508 -0.003384796499353115 -0.001088373784169975 -0.002427340612039235 
0.003675187448620426 -1.793863220195799e-05 0.001573013947271301 0.0004798022234001258 -0.00146663201949535 -0.003949460018231839 
-0.002657275386392289 0.002520042149276131 0.004187528684411714 -0.002001786619444026 -0.0001705649547056331 -0.004579494127715454 
-0.01119792253282749 -0.005956021833594088 0.004683568993823218 0.0006224647715503139 0.0006092619656723705 0.005082854489991245 
-0.02888119014243866 0.00471523744075296 -0.003516011963742703 0.009129127380920768 0.005150043058847803 -0.002954712981783345 
-0.01606290809316131 0.006862246987181423 -0.00331426220139608 -0.0009190549146655524 -0.001462931716222811 0.001570601548247519 
-0.01580133816345841 0.006516080027566163 -0.002660553583244709 -0.001412996223581255 0.0006576467534103085 -0.00441067378111065 
0.03013287946611009 -0.009315757873737673 -0.003254057123458497 -0.011240964452687 -0.004813884572442311 -0.007092524852880673 
0.01428230861969593 -0.01178780940791455 0.003249278826150534 -0.0234265494401293 -0.02465836810797735 0.01208893719632944 
-0.03170460100295453 0.00373289001399687 -0.01003147331078553 -0.009732969612205768 0.00682382674890222 0.0195243240973992 
-0.01401994964988387 0.01105557457055031 -0.0005519285711802554 -0.005916830221117345 -0.001544101927629467 0.00425245830811785 
-0.006504859874814398 0.0166008561457871 -0.004615776934927894 -0.003110015252601056 -0.0006607424466693296 -0.003308541062759595 
-0.01128656626815888 0.009669220424575216 -0.004220252754661588 0.004867449455832205 -0.002381318034730423 -0.002659507061746795 
-0.0173677817959785 0.004519161067180612 -0.007238269515523588 0.0144494621073084 0.0007978186340354964 -0.01105579125439496 
-0.002659999206803337 0.01228214752055711 -0.005334555311491498 0.008122601757916641 -0.0006676594593351644 -0.008489499597418359 
0.003306651628980266 -0.003367662897191812 7.831239268623787e-05 0.001467743298916197 -0.005989147997731818 0.001165889315954767 
-0.0001082966433584946 0.0001431622619279358 -0.000505500048872255 0.006188789825686807 -0.002496551277754183 -0.0009833253874713187 
-0.003713072268854477 0.013507939250655 -0.002980979318042554 0.0008288232820959724 -0.002680492571350807 -0.001015360222323642 
0.003582690132942334 0.0237598843781488 -0.005590866454136256 -0.002455970563231695 -0.013275813590379 -0.005686011339322942 
0.0142098258962765 -0.001671130900623196 -0.005023826260800656 -0.01078617805986515 -0.02080739567498683 0.002809647182312897 
0.01122456977432027 0.002727072364241861 -0.004389360209417329 -0.01301845918679584 -0.01717152496608996 0.005691824332634489 
-0.00766116930379291 0.01999117874836886 -0.002603084149553869 -0.01331467828796673 -0.01341041505492867 0.009086535865893556 
0.001326047061419744 -0.00809961007628668 -0.004367580655553413 0.009981390228837542 -0.004353939346504368 -0.004104056660833182 
-0.03153395199178469 -0.00381838616954361 0.01407177360375841 -0.00737963367156972 -0.002798825798257829 0.01003652580965824 
-0.01939222200152119 -0.0004430486258736364 -0.002823636021762091 0.01675812670411935 -0.01044951650225008 -0.001076313396576142 
-0.01080768709365044 -0.00468184122759792 -0.004029816189808957 0.01515404323870224 -0.01250637604756958 0.00103284977655804 
0.001261299344904806 0.008479858390509607 -0.00930060623837578 -0.006374243385181768 -0.007229276465844555 -0.0009407376029712064 
0.03006725123760152 0.005482819697467756 -0.007420034355536642 -0.01928261038679919 -0.002381060956952058 -0.009352345499285214 
0.04382766963673138 -0.00400453844776491 -0.006901355307971513 -0.01750296957009182 -0.02198226365736933 -0.008546911016941919 
-0.008628450761337803 0.01474806283336848 -0.003959942934987568 -0.01317054637426581 0.002947609353524281 -0.00988167012693416 
-0.001603133795639325 0.03342111420721633 -0.006300456108747549 -0.01452730878478318 -0.0133847254653228 -0.002308324718827678 
0.003764329849096882 0.02395776085107125 -0.007875434332199303 -0.01659058887837328 -0.01271813887560991 0.003713192610378473 
-0.001446314128883076 -0.005481299477423322 -0.01681361154014571 0.02699211587168641 -0.01019370804516286 -0.00452179920513325 
0.01659917836992214 0.0005801176362432627 -0.01119044742148313 0.01751032645134969 -0.01461102503079024 -0.03676681766751914 
0.02383871384315365 -0.0006970515074536879 -0.002987046235804472 0.001529138395592729 -0.01785151365048866 -0.02600902950918564 
0.01182637120794507 0.002871239015828948 -0.0008553463576761408 -0.007615539713072135 -0.0173212776921223 -0.009739444981747643 
0.002994101464645673 0.01098401068001004 -0.01755279085344438 0.02632853411698134 -0.02271944781244203 -0.001021602021781543 
0.0001875668901629557 0.01484244733673581 -0.007760423118308464 -0.01026737466444357 -0.0123829391242238 -0.001477353958710879 
0.01294978489515865 -0.005483255694455656 -0.009918359561692363 -0.01487487687895814 -0.02347852307961306 0.01005375781220257 
0.02227175226273244 0.001462072776753391 -0.01479323681892885 -0.02690834615073996 -0.0340340299561653 0.0237481411406036 
0.02239734695368153 0.02609413347692428 -0.01198171143188696 -0.02061723604582796 -0.03320728731043692 0.006330169062272148 
0.003553043289325871 0.01803376704174625 -0.01568555426257427 0.004837665315913681 -0.005265314511282071 -0.01025394452842314 
-0.008321755611164631 -0.001561450684301947 -0.02160987575218446 0.02556108504152212 -0.006316881857075938 0.001176962793333544 
-0.0009991394837740488 -0.01142639466718416 -0.0002006611306506066 0.006628439468852992 0.004383688007284706 -0.008545372129684136 
-0.01485131853713224 -0.01855611725537909 -0.00432547423221198 0.02272574139032942 -0.004840028390376235 0.007411037359048224 
-0.003677925593701175 -0.02496036957525409 -0.001446857069504438 0.01512205888380419 -0.007315119841623863 0.008616835749160534 
0.01392183768214773 0.001886360167185043 -0.008400990060197852 -0.000545015122373921 -0.01547321616375699 -0.0107669373955074 
0.02257784628125498 -0.002796955428975891 0.004848593347595821 -0.005690699365944624 -0.0109905194377223 -0.02539209181159145 
0.02474789877155841 -0.02746732375949717 -0.008995575106625717 -0.01253270825837349 -0.002858939231367378 -0.008580876992331276 
0.0218885103937983 -0.02608971585678063 -0.01262755907966459 -0.01368884917275053 0.02852358700971499 -0.02287250651375049 
-0.001119058746958965 0.01737131973158073 -0.01023028121881384 -0.008779594584722297 -0.003511861920028894 -0.008593928821768335 
0.01328084206395162 0.03153506745986705 -0.01609660265062977 -0.009361687941147894 -0.0170448805621131 -0.01471587146576305 
-0.01749162288331459 -0.006658111962752576 -0.02387153344951555 0.02635361999696368 -0.001171855411270339 0.002569313144769425 
-0.002767980791595116 -0.004551827033308655 -0.01995945256625776 0.02761236379902 -0.006541428116269554 -0.007142023793071053 
0.01001128130211913 -0.0004770294461646143 -0.01495820140268019 0.003016990671401602 -0.01386407148764582 -0.006668916537785853 
-0.003206452863297609 -0.002466600712589947 0.002907938171810778 -0.006553721279881809 -0.01206284031160462 -0.0009981921902842727 
-0.03475573857952855 0.004820538685223287 -0.0008814528343531742 0.02798009564723835 -0.004649172157796587 0.0008067235905519516 
0.0003623134779037831 0.006386080527675601 0.01056920817378351 -0.006516583434138115 -0.02764740169620087 0.005813169123105511 
-0.02758558614087919 0.005298686490168397 -0.01571172588001675 -0.01427439943845432 0.01247538155131655 0.02304709030862916 
-0.004831852399176921 0.006836168941571872 -0.02384181430830347 -0.01435782095310078 -0.0006497905876121802 0.02242056070158921 
-0.01866410789994669 8.855781121311898e-05 0.002201927031557427 -0.01626592679713294 0.009422449323513396 0.005088910219453764 
-0.04218719464558281 0.02833244414467932 -0.002395320946957792 -0.009366860710335892 0.003738458549905551 0.007020447736436091 
-0.01249097224506029 0.009262411067475272 -0.002171351708894031 0.003041110479723442 -0.008815012181469829 0.007640800671088722 
-0.01604192337169122 -0.002406445977145525 -0.01586752675360786 0.024863434526999 0.001837035079450878 0.005181912243402505 
-0.01719938199052016 -0.01022129238515662 -0.02155442256919576 0.0280496254727523 -0.0007891565415024036 0.00221489509746915 
-0.009975778626327649 -0.01036766499016513 -0.002317111307908219 0.009168594380608715 -0.0006680458226386049 -0.01114154044325989 
-0.006998981473166841 -0.01897667707319549 0.01416250399417163 0.002813881197536847 -0.01359383336665408 -0.008908194265657622 
0.001517157864938074 -0.02185491617182043 0.02020115913370572 -0.00127060237993837 -0.01779850163954389 -0.001814786821281648 
0.02444733737105578 -0.02561168327695926 -0.01181612739670963 -0.007385489715707086 0.0042261606496924 -0.006103459739764267 
0.01103421653150828 -0.02117007443196713 -0.01252229877786612 -0.008471883674810192 0.01481934176052267 0.003762808246940943 
0.00346968828247622 -0.0090326577108822 -0.004469881201685986 -0.007894086962136183 0.01718638586202577 -0.00285842091226715 
-0.01780369611155268 0.0549279042020968 -0.01762493467645675 -0.005140545608276833 -0.000295403759803233 -0.02189096163610723 
-0.03331281652379089 0.03438591504772995 -0.009179208499851266 0.0004447788347995572 0.004178246993585659 -0.01557674100136568 
-0.02307278077822077 0.01204289117960085 -0.006991641059379438 0.01828913270047344 -0.01106089989986517 -0.01046841283879043 
0.006271356831987126 0.01456588404214641 -0.01784937737379201 0.009664133248326948 -0.01992493481934235 -0.01146169597747501 
-0.002827480335913877 -0.01635054799581825 0.007736055263619577 -0.0006141542524955246 -0.0131961498145466 -0.004889950842932135 
0.02313438874971268 -0.00903434875738829 0.005002153152275897 -0.005500702072072483 -0.04132192561712465 -0.007105947762932277 
0.01757486463433623 -0.01217830715576007 -0.009046840886278908 0.01091105666747148 -0.01851775392220739 0.005598027144357482 
0.01492163551221589 -0.008510799851668947 -0.02635758170498658 -0.01266654559807237 0.002011285029369219 0.009792941395997266 
0.006512707284604883 -0.008405387459641166 -0.01422164745157453 -0.005986884050033673 -0.01312181185934747 0.003843798132473612 
-0.01371555446408158 -0.01452250546646606 -0.0009334235231814707 0.002673690403979883 0.01338370044151857 0.007901879858640231 
-0.02103783154749815 -0.01464792575020021 0.01145804856739986 0.003415180399903676 -0.004929883758394689 0.004552658517861787 
-0.02647502588830923 0.006064150551122039 -0.003098518307376323 0.0145938480990956 -0.005224283428733953 0.00537456531929782 
-0.02545789519294762 -0.000964585846276274 -0.01250504851687175 0.02325663577979983 0.001001652219358105 -0.002977414461793642 
-0.02412238290123356 0.007536900788016839 -0.02163563027003804 0.02310157867097053 -0.001843360093114307 -0.001013975690324795 
-0.02702924175530877 0.007735063038168637 0.002385871014119063 -0.00176377919325306 0.001645103731775255 -0.006280138639903563 
-0.01955023949402587 0.006866970720411337 0.002855090434165466 -0.0013820199880025 0.004244522771452614 -0.004992683013068377 
-0.01410144410196771 -0.003659668934033788 0.001428532451836992 -0.004910227028160474 0.007901274711286261 -0.004111136148451701 
0.01471030393306868 -0.00617611391773294 -0.01459727594897606 -0.01632958265812146 -0.007922328031261262 0.0002948555670559427 
0.02641064309556516 -0.006533715871875242 -0.02342689646740975 -0.009444037745383441 -0.02460502105134893 0.02935460999203479 
0.001007460429034785 -0.0173265298256471 0.01303292415371454 -0.0009718885909251861 -0.03160147474445107 0.01029474201766302 
0.01748220831532769 -0.01088089084805702 0.01274568340008723 -0.008258715311917953 -0.0406472699978151 0.004507259457069454 
0.0006039004110032487 0.01476330879716971 -0.003517794020157726 -0.01343957095560797 -0.01570129131422016 -0.002424550422007403 
-0.001588703426700391 0.01638848120349155 -0.02008468158009669 0.01558089071307508 -0.01351131665689536 -0.0107772658322251 
0.003999795874719152 0.02256331723987388 -0.01809129950260761 0.009312316680428263 -0.008022095858249496 -0.01921810099628884 
-0.02913037678624491 0.02396563432731794 -0.006394728639225337 0.004851779132023487 -0.005952651128482258 -0.008004338840414888 
-0.01675006123709767 0.02206618905189299 -0.0003419897965180874 -0.01063647464230685 -0.001915323445442183 -0.02275698507489367 
0.01031094447148452 -0.02088737719715328 0.003232489524994011 -0.01403295539958417 0.01681841657682705 -0.0169465803249828 
0.0352631051002639 -0.01101834268740334 -0.01261835425475731 -0.01123524642098233 0.01458366587284347 -0.02125203833989979 
0.05697210333188422 -0.04328385028136812 -0.01911779001909509 -0.01194855511443654 0.009928280741213359 -0.01968935001012087 
0.02774033054948376 -0.0129247870180835 0.009921633492796395 -0.005422380890326293 -0.03361024982426026 -0.01250667471098259 
-0.0196107767760863 0.003622609463913487 0.003814635858250346 -0.006299297931277347 0.006693161042511588 -0.007766142414982119 
-0.01511312994355741 -0.01257456633802417 -0.003508416824178144 0.006195223489162567 0.001460627805347321 -0.001430321580487695 
-0.03465068318020139 -0.01820800572692583 -0.001151621967724777 0.008677771371157449 0.007556354570910384 0.01156767457880103 
-0.01707103162021099 -0.008338829583234486 -0.01547746244211075 0.01551652815308689 0.01775216307845465 -0.001072430781297825 
0.002812547145051774 -0.005609285468278868 -0.008155546113904035 0.01364629254370227 -0.002267039691370135 -0.005601737547841153 
0.01383477959678489 0.005485923569221179 -0.01561415999647718 0.002208198537289424 0.007797433906858357 0.001183733399016827 
-0.002180909523974306 0.01739016614954814 0.0009016532138545873 -0.009832242671149382 -0.01391448908078226 0.008738845128852223 
-0.01423986882239063 0.01771209044643388 -0.01927095099702651 -0.01627702677412888 -0.007051061145771302 0.01653213449064831 
-0.005315487957799038 -0.004839372900337307 -0.0139503326323099 -0.01897832121808562 0.008469041339618575 0.01267923195178626 
0.008382314021591897 0.005493551372078684 0.002556000401301902 -0.002459182091031384 -0.01196930378851072 -0.009968623396504648 
-0.02987494973969293 0.01583891095665603 -0.004499158729463945 0.02039518845719788 -0.01951587065855514 0.009119936769998192 
0.01246214367605875 -0.002333668678328857 0.01099764791721348 -0.01051578494165895 -0.01515762494295105 -0.01663738671823236 
0.01933324774174968 0.00340772559721314 -0.009667581338727985 -0.004333743507477021 -0.01429392794066757 -0.01491049183319722 
0.002924241962803925 -0.01601828017981417 -0.01786825093990193 0.02475362040444959 -0.01835023234007189 -0.01198572089905705 
-0.01039784276381113 0.009744646008626982 -0.02236342372016989 0.02408753482198361 -0.01360886363357919 -0.007369773931010304 
0.001303662464214692 0.009023756293649335 -0.0114900594218008 -0.00291996024503851 -0.01399635687305486 0.0005675105614518162 
-0.02114156666595716 0.01319917355490834 0.0007942209269607938 -0.008961322027808147 -0.004701918940622889 0.006266993381679622 
0.01738297356381828 -0.01811815858454885 -0.008939857867821676 -0.007971994166465778 0.01785185723052042 -0.01351319271353473 
0.04345740029620084 -0.01258374844200931 -0.0075202355941385 -0.01943936670252704 -0.008668861418993541 -0.01563544310777388 
0.02346900294303374 -0.002589837702673151 0.002483160944743009 -0.02507584005562923 -0.004226327498444528 -0.01568933132500562 
-0.007108802286277935 0.01074449646506486 -0.01587877269881918 0.01156752252354402 0.0004615682519008558 -0.008218426600435334 
-0.001889448146265081 -0.01151051579063214 -0.00848059737498464 0.018769878047654 -0.01081036034709537 -0.003134912685879813 
-0.001428572210517353 -0.01006572283281044 -0.004863155601718298 0.01529203514422466 -0.01125599007121686 -0.005604534837952108 
-0.01165294989901867 -0.007088117028479006 0.000157661371844261 0.002954441546873189 -0.007246717824489568 0.004331360416268068 
-0.002348257760521559 -0.00375971145268232 0.0002981548893579456 0.01069422079034321 -0.005435811831482434 0.0001524296336691455 
-0.007076370332652582 0.03025487945281608 -0.005868676562853841 -0.01429292136366551 -0.01524599021613921 0.0004612510848381635 
-0.0280056349487433 0.01000641629518946 -0.004421167552060574 -0.01025978353486086 -0.001669353574694611 0.02059239433929317 
0.01536860656260588 0.00776867696942588 -0.0110180494057449 -0.01543380275514079 -0.03176732695880865 0.01301617826695325 
-0.01142527757042003 -0.002174975745481737 -0.009853908573733944 -0.01614669704490311 -0.001929422616524703 0.003089887102764287 
0.003913044778946865 0.009734426712364835 0.002378072778699715 -0.00984952697203543 -0.0124424407076678 -0.01381475995668609 
-0.01697663955194835 0.01054342876429317 -0.003992022990944458 0.002327061711664753 0.009432310958433969 -0.002468162517672041 
-0.02143470302853826 -0.01026896690081608 0.02037801176292035 -0.02269771178965214 -0.01343617419734473 0.01831661710169889 
0.02650226104905396 0.02087642482058463 -0.004269804524532691 -0.01181784154520341 -0.01673750066146714 -0.02534076465342869 
0.01570065509196594 -0.01141986907329477 -0.01675395998232736 0.01623154035436935 -0.02279277189237745 -0.02561420340286779 
0.01034355011074903 -0.01336944219218899 -0.01484599368385269 0.01571802119182925 -0.01354268930787924 -0.005607990104911724 
0.01662762445326246 0.01123345954545891 -0.007800018254383279 -0.0006889531099751662 -0.01869240339495453 -0.002065543471248569 
-0.005669639802443227 0.02992612496948331 -0.007272706455364086 -0.009547068201633377 -0.00510635544252114 -0.002388800183771024 
0.01011254780613059 0.01287093374200869 -0.005702073443017172 -0.0113917096317817 -0.006281151072960924 -0.01458186349222515 
